<?xml version="1.0"?>
<opencv_storage>
<opencv_ml_svm>
  <format>3</format>
  <svmType>C_SVC</svmType>
  <kernel>
    <type>RBF</type>
    <gamma>5.0624999999999998e-01</gamma></kernel>
  <C>1.2500000000000000e+01</C>
  <term_criteria><epsilon>1.1920928955078125e-07</epsilon>
    <iterations>1000</iterations></term_criteria>
  <var_count>324</var_count>
  <class_count>26</class_count>
  <class_labels type_id="opencv-matrix">
    <rows>26</rows>
    <cols>1</cols>
    <dt>i</dt>
    <data>
      0 1 2 3 4 5 6 7 8 9 10 11 12 13 14 15 16 17 18 19 20 21 22 23 24
      25</data></class_labels>
  <sv_total>464</sv_total>
  <support_vectors>
    <_>
      0. 0. 0. 0. 4.59935842e-03 5.47216693e-03 5.12432052e-05 0. 0. 0.
      0. 0. 9.47333581e-04 1.54514939e-01 5.30449338e-02 9.51659385e-05
      0. 0. 3.45783271e-02 7.42204189e-02 1.81355253e-02 0.
      4.91021760e-02 3.48966956e-01 2.08255038e-01 2.92363465e-02
      7.86403753e-03 4.08631474e-01 3.92082065e-01 6.67225868e-02
      1.29794590e-02 4.08631474e-01 4.08631474e-01 3.21500391e-01
      4.06753644e-02 1.71357915e-01 0. 0. 0. 1.52191790e-02
      1.57749891e-01 1.87784247e-02 1.05135005e-05 0. 0. 0. 0. 0.
      2.59668939e-02 8.78821611e-02 3.25980916e-04 0. 0. 0.
      3.38166982e-01 1.18064754e-01 1.99670270e-02 2.36623034e-01
      3.38166982e-01 3.38166982e-01 3.81142907e-02 8.00050944e-02
      3.38166982e-01 1.18624255e-01 7.22574964e-02 1.85045049e-01
      3.38166982e-01 3.38166982e-01 3.59404087e-02 5.93925314e-03
      1.70916259e-01 3.38166982e-01 0. 0. 0. 3.89455818e-02
      6.37570620e-02 0. 0. 0. 0. 0. 0. 0. 0. 0. 0. 0. 0. 0.
      1.21936969e-01 3.42594504e-01 4.58695799e-01 4.58695799e-01
      4.58695799e-01 3.42719406e-02 1.17824255e-02 3.15554559e-01
      3.53406698e-01 0. 7.79168075e-03 2.33750418e-02 0. 0. 0. 0. 0. 0.
      3.84133346e-02 7.88089037e-02 2.94371266e-02 0. 2.09529046e-02
      1.53187215e-01 2.07426235e-01 6.53004944e-02 3.93845625e-02
      2.70483583e-01 2.70483583e-01 1.11749135e-01 2.20039971e-02
      2.70483583e-01 2.70483583e-01 2.70483583e-01 1.06137030e-01
      1.77239478e-01 3.53025347e-02 4.37071621e-02 2.11734846e-02 0.
      1.10908877e-02 3.41995284e-02 1.45933971e-01 8.75295475e-02
      6.38222173e-02 2.70483583e-01 1.87225804e-01 8.58155787e-02
      4.31813151e-02 2.70483583e-01 2.60356635e-01 2.70483583e-01
      2.27810413e-01 2.70483583e-01 2.52118796e-01 1.28994569e-01
      3.26974392e-02 1.00786962e-01 2.52118796e-01 2.19296947e-01
      5.29890582e-02 5.88222630e-02 2.30146497e-01 1.29468217e-01
      1.36271432e-01 1.14583880e-01 2.34345064e-01 2.52118796e-01
      6.35399371e-02 1.53769068e-02 1.19147815e-01 2.20988110e-01
      2.52118796e-01 1.15174495e-01 3.03959884e-02 1.01098180e-01
      2.52118796e-01 1.48824483e-01 6.83823377e-02 6.95031509e-02
      2.52118796e-01 2.23306432e-01 1.28688723e-01 3.68168019e-02
      2.28881314e-01 2.52118796e-01 5.07201999e-02 1.36704342e-02
      6.40132949e-02 2.52118796e-01 1.14653438e-01 2.10448161e-01
      2.96084970e-01 3.29843849e-01 2.90788859e-01 2.22798586e-02
      7.41409929e-03 1.23764440e-01 1.15995646e-01 4.85475721e-06
      3.03120841e-03 9.60558653e-03 1.98827535e-02 2.18737070e-02 0. 0.
      0. 4.85475721e-06 3.29843849e-01 1.95054635e-01 1.94080666e-01
      3.29843849e-01 3.29843849e-01 1.26028340e-02 3.99220781e-03
      8.81027803e-02 3.29843849e-01 8.30882937e-02 5.66022024e-02
      1.21169440e-01 2.42218971e-01 1.11192733e-01 0. 0. 2.96408962e-03
      1.15236737e-01 6.55196086e-02 1.26007907e-02 4.57154866e-03 0.
      9.84313805e-03 2.31508631e-02 1.44475460e-01 1.38127699e-01
      1.14195019e-01 4.32288885e-01 1.50010154e-01 2.84741446e-02
      7.44186789e-02 2.98801243e-01 2.67943054e-01 4.32288885e-01
      4.32288885e-01 4.32288885e-01 1.08268566e-03 0. 0. 0. 0. 0. 0. 0.
      1.08268566e-03 8.91028717e-03 0. 0. 0. 0. 0. 0. 0. 8.91028717e-03
      3.91709656e-01 7.96087980e-02 1.30546717e-02 1.07963882e-01
      2.18665093e-01 6.91966414e-02 6.52439147e-02 9.75064114e-02
      3.91709656e-01 3.91709656e-01 6.48586154e-02 2.04436556e-02
      3.59307021e-01 3.91709656e-01 8.32477957e-03 5.04820142e-03
      7.70417377e-02 3.91709656e-01 6.23546494e-03 0. 0. 0. 0. 0. 0.
      1.48749195e-05 7.64645543e-03 2.94237081e-02 5.33770828e-04
      7.08057720e-04 0. 0. 0. 0. 9.31623508e-04 6.04340509e-02
      4.07468617e-01 1.19315997e-01 2.05789044e-01 4.07468617e-01
      4.07468617e-01 0. 0. 6.89321086e-02 4.07468617e-01 2.12274909e-01
      9.92099643e-02 2.03146756e-01 2.72901326e-01 8.81605446e-02 0. 0.
      5.40190144e-03 2.61386782e-01 7.61695206e-02 5.65083325e-03
      1.01102302e-02 0. 0. 0. 0. 1.70829077e-03 1.23294890e-01
      3.53180133e-02 5.25459507e-03 1.01655638e-02 0. 0. 0. 0.
      2.84310663e-04 3.43429558e-02</_>
    <_>
      0. 0. 0. 0. 2.32111989e-03 4.18347248e-04 0. 0. 0. 0. 0. 0.
      1.92946079e-03 6.31588995e-02 7.39954924e-03 0. 0. 0.
      3.45687531e-02 4.17094715e-02 2.99692471e-02 1.81303322e-02
      1.09208375e-01 3.29174221e-01 1.96327642e-01 3.31162587e-02
      2.26015262e-02 4.11274672e-01 2.44137123e-01 1.07275024e-01
      1.60603657e-01 4.11274672e-01 4.11274672e-01 2.60880560e-01
      6.32903650e-02 3.88372660e-01 0. 0. 0. 3.77873913e-03
      5.38286231e-02 3.11813061e-03 0. 0. 0. 0. 0. 0. 2.25529005e-03
      1.96256600e-02 6.85212217e-05 0. 0. 0. 2.57916838e-01
      7.61722177e-02 2.59858649e-02 3.67109150e-01 3.67109150e-01
      2.94188589e-01 3.52563746e-02 5.45502268e-02 3.67109150e-01
      5.43307662e-02 1.54870544e-02 8.47842023e-02 3.67109150e-01
      3.67109150e-01 1.16587803e-02 4.44346815e-02 9.02827755e-02
      3.67109150e-01 0. 0. 0. 0. 7.89253041e-03 0. 0. 0. 0. 0. 0. 0. 0.
      0. 0. 0. 0. 0. 1.21081630e-02 1.03689037e-01 5.23697138e-01
      5.23697138e-01 5.23697138e-01 3.16891037e-02 1.38814896e-01
      1.83281884e-01 3.17828506e-01 0. 1.22917267e-02 7.15753362e-02
      2.93402765e-02 4.19585640e-03 0. 0. 0. 0. 3.50773558e-02
      4.14936356e-02 4.54276130e-02 2.55779177e-02 3.78528461e-02
      1.53783947e-01 1.71828493e-01 9.34085250e-02 6.21532723e-02
      2.71865308e-01 1.98661059e-01 1.89480633e-01 1.02927610e-01
      2.71865308e-01 2.71865308e-01 2.21546799e-01 1.43981785e-01
      2.71865308e-01 4.02015746e-02 2.47927736e-02 3.64946164e-02
      1.95350163e-02 2.26483680e-02 4.14359458e-02 1.33403778e-01
      1.10812165e-01 1.01182006e-01 2.71865308e-01 1.03413984e-01
      1.67272344e-01 5.83447665e-02 2.71865308e-01 2.71865308e-01
      2.33340144e-01 1.85312122e-01 2.71865308e-01 1.58214718e-01
      5.87891676e-02 4.73791212e-02 1.24922387e-01 2.52161711e-01
      1.82264134e-01 2.99838390e-02 3.98673415e-02 2.52161711e-01
      1.20667294e-01 9.01502445e-02 9.21197832e-02 2.52161711e-01
      2.52161711e-01 1.01399653e-01 7.54144788e-02 6.90805987e-02
      2.48336852e-01 1.92035988e-01 5.41797951e-02 6.77080601e-02
      4.98147346e-02 2.52161711e-01 2.12206125e-01 3.72884050e-02
      3.76730375e-02 2.52161711e-01 2.52161711e-01 1.62315041e-01
      1.19617194e-01 2.52161711e-01 2.52161711e-01 1.52288556e-01
      6.78583831e-02 5.31030074e-02 2.52161711e-01 2.05432594e-01
      2.42710665e-01 3.06836158e-01 3.06836158e-01 2.11188897e-01
      7.57717639e-02 1.28388628e-01 8.74342397e-02 1.35389179e-01
      3.86478822e-03 1.92385111e-02 4.27137874e-02 1.34543022e-02
      4.20507044e-03 0. 0. 0. 4.12856316e-05 3.06836158e-01
      3.06836158e-01 3.06836158e-01 3.06836158e-01 3.06836158e-01
      8.95641670e-02 1.14721723e-01 7.28926882e-02 3.06836158e-01
      2.79200505e-02 4.62955907e-02 1.02087192e-01 6.78221881e-02
      4.62975502e-02 0. 0. 1.74476198e-04 2.90261954e-02 7.90234134e-02
      9.83585045e-03 1.13609424e-02 1.20392622e-04 3.47751230e-02
      1.77729055e-02 1.40563220e-01 9.49917585e-02 1.71313897e-01
      4.56030518e-01 3.84797640e-02 6.65523112e-02 2.28746189e-03
      4.56030518e-01 3.38837773e-01 3.73989254e-01 2.10491106e-01
      4.56030518e-01 8.24079558e-04 0. 0. 0. 0. 0. 0. 0. 8.24079558e-04
      1.39750540e-02 0. 0. 0. 0. 0. 0. 0. 1.81833208e-02 3.39204818e-01
      3.67833860e-02 5.28116189e-02 4.79225479e-02 2.53063232e-01
      1.61907673e-01 3.42001393e-02 4.18639034e-02 3.79020870e-01
      3.79020870e-01 1.39001533e-01 1.32590562e-01 3.79020870e-01
      3.68580818e-01 9.05309096e-02 8.49734433e-03 6.26981929e-02
      3.79020870e-01 1.42185669e-02 0. 0. 0. 0. 0. 0. 6.05823705e-04
      3.35205868e-02 5.34717180e-02 4.75852331e-03 4.26594960e-03
      3.57523141e-03 0. 0. 0. 3.26019013e-03 1.33071274e-01
      3.95481676e-01 2.81165540e-01 3.87065262e-01 3.95481676e-01
      3.95481676e-01 2.58569121e-02 8.39381851e-03 5.78875914e-02
      3.95481676e-01 8.72993469e-02 8.38913545e-02 1.72295049e-01
      1.13064952e-01 6.23946227e-02 0. 0. 5.51518111e-04 1.06834874e-01
      1.12492554e-01 2.89723817e-02 2.88332999e-02 1.44063458e-02 0. 0.
      0. 4.34440514e-03 2.21011892e-01 2.24520098e-02 1.34515529e-02
      1.54613275e-02 3.90241435e-03 0. 0. 0. 9.73267015e-05
      2.62666382e-02</_>
    <_>
      0. 0. 0. 0. 5.30294958e-04 2.46098591e-03 8.55671649e-04
      6.32451774e-05 0. 1.11785559e-02 3.16578080e-03 0. 0.
      1.52365312e-01 1.33633718e-01 2.00578440e-02 1.89735525e-04
      2.50415923e-03 1.05162095e-02 2.49663815e-02 3.05615831e-03
      4.42456221e-03 5.59851108e-03 1.51173025e-01 1.47736296e-01
      2.61284281e-02 1.01656665e-03 4.23574299e-01 4.23574299e-01
      4.12505083e-02 2.50725206e-02 4.23574299e-01 4.23574299e-01
      4.23574299e-01 5.80792725e-02 7.21685961e-02 1.34340161e-02
      2.33250950e-03 5.28003846e-04 9.47285816e-03 2.11343303e-01
      6.06252402e-02 6.94457814e-03 9.16935271e-04 8.94706789e-03
      9.25447978e-03 1.43976777e-03 3.58363474e-03 7.31576458e-02
      2.34312698e-01 8.72664247e-03 6.16850564e-04 3.70788621e-03
      1.39331995e-02 3.20725888e-01 2.41651416e-01 1.32333031e-02
      4.70200665e-02 3.20725888e-01 3.20725888e-01 1.26617044e-01
      2.38936227e-02 2.52747595e-01 2.76983321e-01 4.85063009e-02
      9.16753709e-02 3.20725888e-01 3.20725888e-01 7.29500726e-02
      2.99070422e-02 1.87776729e-01 3.20725888e-01 2.72568525e-03
      1.51217612e-03 7.74608692e-03 1.34987980e-01 1.56466171e-01 0. 0.
      3.96393333e-03 8.39719921e-03 0. 0. 7.27160717e-04 7.35178217e-03
      1.56025519e-03 0. 0. 0. 0. 1.28279135e-01 1.12615362e-01
      4.02224213e-01 4.02224213e-01 4.02224213e-01 1.08510606e-01
      9.13217366e-02 4.02224213e-01 4.02224213e-01 1.40879275e-02
      4.26074862e-02 2.00924709e-01 2.24525094e-01 1.69427823e-02
      1.38745448e-02 1.36576546e-02 3.22448201e-02 1.97448656e-02
      1.10194385e-02 2.72363387e-02 1.06100785e-02 1.56966560e-02
      5.36616240e-03 7.85390809e-02 1.58499002e-01 8.13416988e-02
      1.50684202e-02 2.75923580e-01 2.75923580e-01 2.02635288e-01
      1.27983451e-01 1.25504538e-01 2.75923580e-01 2.75923580e-01
      2.21088693e-01 1.06922321e-01 9.74416640e-03 1.30324783e-02
      1.12609761e-02 1.64329670e-02 4.30900138e-03 1.21174129e-02
      9.83854681e-02 1.00155480e-01 3.85716148e-02 1.61117479e-01
      1.86010987e-01 2.70422876e-01 1.63464174e-01 1.96958631e-01
      2.64934063e-01 2.75923580e-01 2.75923580e-01 2.75923580e-01
      2.31307060e-01 1.92463696e-01 7.16748610e-02 4.38523516e-02
      1.67803094e-01 2.25525737e-01 8.48771036e-02 3.72194760e-02
      1.22311696e-01 1.97680354e-01 1.19148172e-01 6.04795329e-02
      1.65144265e-01 2.02207804e-01 2.31307060e-01 6.60695806e-02
      1.13588974e-01 2.31307060e-01 1.30637810e-01 1.37244344e-01
      1.34005144e-01 9.20935795e-02 2.31307060e-01 2.31307060e-01
      8.89674425e-02 1.05924331e-01 2.31307060e-01 2.31307060e-01
      2.31307060e-01 7.87308291e-02 1.72602758e-01 2.31307060e-01
      2.31307060e-01 7.54703507e-02 3.57720256e-02 2.21777469e-01
      2.48947665e-01 2.69323349e-01 2.69323349e-01 2.69323349e-01
      1.55684456e-01 2.69323349e-01 1.44962534e-01 2.44998887e-01
      2.69323349e-01 4.17877398e-02 1.07098237e-01 1.62184045e-01
      9.24562737e-02 1.09223053e-02 2.45184898e-02 1.77176706e-02
      2.41996311e-02 1.15795173e-02 2.69323349e-01 2.69323349e-01
      1.80345118e-01 2.25761816e-01 2.28716284e-01 2.69323349e-01
      1.12356439e-01 5.42819425e-02 1.67350560e-01 5.09720668e-02
      1.04409531e-01 7.75052160e-02 1.94043647e-02 1.47678638e-02
      1.73380375e-02 9.21514537e-03 6.30348269e-03 6.91421842e-03
      1.13372859e-02 2.73550418e-03 4.63615125e-03 5.89476852e-03
      2.36056047e-03 0. 4.44729626e-02 7.07644299e-02 4.88097519e-02
      3.92348856e-01 8.58787447e-02 1.87090710e-01 1.00762554e-01
      3.66018593e-01 3.92348856e-01 3.92348856e-01 3.92348856e-01
      3.92348856e-01 0. 0. 0. 0. 0. 0. 5.30665799e-04 1.76888614e-04 0.
      5.01254424e-02 5.50250465e-04 0. 0. 0. 0. 1.59091260e-02
      2.16517951e-02 1.64592564e-01 2.55547196e-01 1.10012509e-01
      9.48402062e-02 1.07509114e-01 2.73383558e-01 2.74607688e-01
      9.77697596e-02 1.56442821e-01 3.12674254e-01 3.12674254e-01
      2.18856379e-01 1.48910329e-01 3.12674254e-01 3.12674254e-01
      1.86319932e-01 2.91932710e-02 5.94488941e-02 3.12674254e-01
      4.65851836e-02 6.45517488e-04 1.69624726e-03 5.71153592e-03
      2.50061834e-03 0. 2.98079569e-03 1.13415830e-02 1.53209925e-01
      9.90640447e-02 3.65086854e-03 2.45208051e-02 5.00898212e-02
      1.70245022e-02 0. 7.26320141e-05 1.12054450e-02 2.78493792e-01
      3.59212965e-01 3.23640585e-01 3.59212965e-01 3.59212965e-01
      3.59212965e-01 1.09940119e-01 2.93478277e-02 3.77571993e-02
      3.59212965e-01 6.20076247e-02 5.05051948e-02 1.28892392e-01
      4.95461114e-02 4.32406180e-02 9.45312087e-04 0. 7.77070061e-04
      4.64505479e-02 1.90692469e-01 2.44640652e-02 1.32009789e-01
      1.15486398e-01 4.46979888e-02 0. 0. 9.90326796e-03 3.59212965e-01
      2.71119811e-02 1.06663592e-02 4.55278717e-02 9.69109405e-03
      6.72384817e-03 0. 0. 2.59023363e-04 2.67421734e-02</_>
    <_>
      0. 0. 0. 0. 0. 0. 0. 0. 0. 0. 0. 0. 0. 1.74920296e-03 0. 0. 0. 0.
      0. 7.21178297e-03 3.30682029e-03 2.20655906e-03 4.50656563e-02
      1.29396632e-01 1.68452814e-01 2.90110298e-02 3.67421657e-04
      3.41351569e-01 1.44419000e-01 8.77769962e-02 1.03098765e-01
      4.88134205e-01 4.88134205e-01 4.88134205e-01 1.04134195e-01
      2.56282002e-01 0. 0. 0. 0. 3.07270582e-03 0. 0. 0. 0. 0. 0. 0. 0.
      2.05447758e-03 0. 0. 0. 0. 2.64822632e-01 4.59540933e-02
      3.94414365e-02 3.88416201e-01 3.92708391e-01 3.78505498e-01
      9.85667631e-02 5.56387231e-02 2.92606264e-01 9.17251334e-02
      1.42521411e-02 1.27715245e-01 3.92708391e-01 3.92708391e-01
      1.03327088e-01 4.42875139e-02 6.35972023e-02 1.59473792e-01 0. 0.
      0. 0. 0. 0. 0. 0. 0. 0. 0. 0. 0. 0. 0. 0. 0. 0. 6.23063138e-03
      7.62999430e-02 5.67624867e-01 5.67624867e-01 5.67624867e-01
      5.32364808e-02 7.96962753e-02 9.91978645e-02 5.28648011e-02 0.
      2.38336530e-03 7.15009635e-03 0. 0. 0. 0. 0. 0. 3.49264964e-03
      6.93997042e-03 5.02584269e-03 2.75316113e-03 1.38429282e-02
      5.92580028e-02 1.50593624e-01 6.01416305e-02 2.52509490e-02
      2.84664482e-01 1.51632458e-01 1.72341406e-01 9.11713019e-02
      2.84664482e-01 2.84664482e-01 2.84664482e-01 2.76549250e-01
      2.84664482e-01 8.05941317e-03 4.35793586e-03 4.44045011e-03
      2.25258642e-03 1.66407379e-03 1.58672370e-02 9.63068604e-02
      6.17219359e-02 4.27346788e-02 2.84664482e-01 1.11091435e-01
      1.65720105e-01 6.54876381e-02 1.58825174e-01 1.41864926e-01
      2.75592238e-01 2.84664482e-01 2.84664482e-01 2.24409521e-01
      5.08145094e-02 7.29850233e-02 1.63773194e-01 2.63009787e-01
      1.97301924e-01 8.33306685e-02 1.08224824e-01 2.63009787e-01
      1.08247027e-01 5.66856712e-02 1.81613922e-01 2.63009787e-01
      2.63009787e-01 9.68019664e-02 5.01412079e-02 7.77672157e-02
      2.40774795e-01 2.20310971e-01 4.21854854e-02 7.29443803e-02
      5.67391850e-02 1.74993902e-01 1.05068199e-01 5.59304319e-02
      1.37965515e-01 2.63009787e-01 2.09363610e-01 6.71071336e-02
      2.01840878e-01 2.33144641e-01 1.73338428e-01 8.02059993e-02
      4.11296636e-02 1.07458621e-01 2.63009787e-01 5.17069250e-02
      1.14545286e-01 3.35775167e-01 3.35775167e-01 2.32594311e-01
      3.61165404e-02 3.68645452e-02 6.48092479e-02 1.58441335e-01
      4.52234596e-03 6.89142291e-03 3.19522843e-02 3.93870510e-02
      2.81662419e-02 0. 0. 3.29806982e-03 5.93846990e-03 3.35775167e-01
      1.67876005e-01 3.35775167e-01 3.35775167e-01 3.19809645e-01
      3.35814543e-02 3.01618986e-02 1.69472635e-01 3.35775167e-01
      7.78991431e-02 3.53213660e-02 1.52362540e-01 1.09829709e-01
      6.42083585e-02 0. 0. 1.86890680e-02 8.09328482e-02 3.09424885e-02
      2.28186976e-03 2.79751467e-03 0. 0. 0. 4.97972853e-02
      1.00697868e-01 1.25895679e-01 5.44819772e-01 1.19363271e-01
      1.68026060e-01 0. 1.03989579e-01 7.15373755e-02 1.27364352e-01
      5.44819772e-01 5.44819772e-01 0. 0. 0. 0. 0. 0. 0. 0. 0. 0. 0. 0.
      0. 0. 0. 0. 0. 0. 3.43329966e-01 3.17794979e-02 4.98235859e-02
      6.19394379e-03 9.67975929e-02 6.44929782e-02 9.15845018e-03
      1.83749124e-01 4.54920352e-01 4.54920352e-01 7.53621906e-02
      2.37932146e-01 2.55291194e-01 1.79509059e-01 5.49543388e-02
      3.59764323e-04 2.07618102e-01 4.54920352e-01 0. 0. 0. 0. 0. 0. 0.
      0. 0. 1.00712653e-03 0. 0. 0. 0. 0. 0. 0. 1.00712653e-03
      4.28237736e-01 1.27697736e-01 4.28237736e-01 4.28237736e-01
      2.37103000e-01 8.77772644e-03 0. 2.17011392e-01 4.28237736e-01
      1.85892820e-01 5.61220087e-02 2.32614934e-01 1.10970892e-01
      5.63344024e-02 0. 0. 2.93108579e-02 1.85164765e-01 3.45047191e-03
      0. 0. 0. 0. 0. 0. 0. 3.45047191e-03 1.39834965e-03 0. 0. 0. 0. 0.
      0. 0. 1.39834965e-03</_>
    <_>
      2.98980420e-04 7.93307030e-04 6.45650798e-05 0. 1.20738093e-02
      2.69269869e-02 4.14408231e-03 2.36955399e-04 0. 1.88712329e-02
      7.01879198e-03 3.65868851e-04 1.27905933e-02 2.44008020e-01
      1.55761465e-01 1.47402240e-02 2.89612130e-04 1.09652439e-02
      2.66918875e-02 6.23080581e-02 5.21057844e-02 1.68980621e-02
      4.38300297e-02 2.46894732e-01 2.83920527e-01 9.44519788e-02
      1.40035013e-02 3.35959375e-01 3.35959375e-01 2.56814301e-01
      1.20617308e-01 3.35959375e-01 3.35959375e-01 3.35959375e-01
      1.55073121e-01 2.86271334e-01 1.61077585e-02 2.96073034e-03
      1.59165682e-03 7.30263144e-02 2.40864918e-01 6.83367103e-02
      4.22040466e-03 1.62456487e-03 1.86099522e-02 3.99614824e-03
      9.28767899e-04 4.09827475e-03 9.80430841e-02 1.03456363e-01
      7.67336646e-03 0. 1.95527473e-03 1.02296080e-02 2.98828930e-01
      1.48923889e-01 1.02030411e-01 2.98828930e-01 2.98828930e-01
      2.98828930e-01 1.06476754e-01 1.34193733e-01 2.98828930e-01
      1.17721602e-01 9.23190340e-02 2.43771255e-01 2.98828930e-01
      2.77454108e-01 9.75921452e-02 8.17543939e-02 2.14060038e-01
      2.98828930e-01 4.45757032e-04 1.87315024e-03 1.14179878e-02
      1.42987698e-01 5.09166345e-02 0. 0. 2.21982133e-03 2.84398883e-03
      0. 0. 0. 0. 0. 0. 0. 0. 0. 1.16530128e-01 3.79336625e-01
      5.18783033e-01 5.18783033e-01 1.69614911e-01 1.21560045e-01
      1.84313416e-01 3.88604850e-01 2.17531338e-01 0. 1.88671914e-03
      5.66015719e-03 0. 0. 0. 0. 0. 0. 2.41283625e-02 4.27594259e-02
      5.87341152e-02 1.79679375e-02 1.18318861e-02 8.72800946e-02
      2.17540413e-01 1.36858925e-01 5.37686162e-02 2.58699119e-01
      2.58699119e-01 2.58699119e-01 1.22548915e-01 2.48673975e-01
      2.58699119e-01 2.58699119e-01 2.58699119e-01 2.58699119e-01
      9.82741825e-03 8.38651042e-03 1.93410423e-02 6.83784066e-03
      6.54878514e-03 1.07991742e-02 6.71948344e-02 8.78449827e-02
      6.00253381e-02 1.56464279e-01 6.62168339e-02 1.67321771e-01
      7.06279129e-02 2.58699119e-01 2.58699119e-01 1.51858747e-01
      2.58699119e-01 2.58699119e-01 1.87353998e-01 1.26818314e-01
      1.16251737e-01 1.23938747e-01 1.96580768e-01 2.30632737e-01
      8.75132680e-02 9.24657807e-02 2.11492300e-01 1.39958411e-01
      1.95985213e-01 1.68268859e-01 2.29442298e-01 1.11705616e-01
      1.83613092e-01 1.03422135e-01 1.13453984e-01 1.27992034e-01
      2.00543538e-01 1.00669794e-01 1.03501141e-01 8.92639235e-02
      2.30632737e-01 2.30632737e-01 5.06357513e-02 9.98873189e-02
      2.30632737e-01 2.30632737e-01 1.98949426e-01 1.12172633e-01
      2.30632737e-01 2.30632737e-01 1.62587106e-01 5.21378256e-02
      6.73263967e-02 2.30632737e-01 1.44983038e-01 3.12613010e-01
      3.12613010e-01 3.12613010e-01 1.07260093e-01 1.03178948e-01
      1.03629731e-01 1.05097234e-01 4.75390218e-02 0. 8.66679882e-04
      2.60003959e-03 3.04645533e-03 4.88648191e-03 0. 0. 0. 0.
      2.99675733e-01 3.12613010e-01 3.12613010e-01 3.12613010e-01
      3.12613010e-01 6.83696494e-02 4.55443002e-02 1.23698451e-01
      3.12613010e-01 1.91445593e-02 4.34751026e-02 9.89982411e-02
      1.25962630e-01 6.25627860e-02 0. 0. 6.03283197e-03 6.38396963e-02
      6.10969774e-03 6.29586924e-04 0. 0. 9.50646959e-03 1.76866315e-02
      5.46376742e-02 6.50222525e-02 6.11807518e-02 4.46040243e-01
      3.20940018e-02 5.36407493e-02 2.97755189e-02 4.13543880e-01
      4.16480392e-01 1.93911344e-01 4.46040243e-01 4.46040243e-01
      8.09272096e-05 0. 0. 0. 0. 0. 0. 0. 8.09272096e-05 1.31816361e-02
      0. 0. 0. 0. 0. 0. 0. 1.57436486e-02 3.65947187e-01 5.68503365e-02
      6.61891252e-02 9.30637345e-02 2.55263776e-01 1.47372499e-01
      2.29965560e-02 1.34724975e-01 3.65947187e-01 3.65947187e-01
      1.03188179e-01 1.38589695e-01 3.65947187e-01 3.65947187e-01
      4.33170423e-02 5.28087327e-03 1.46726862e-01 3.65947187e-01
      1.50944488e-02 0. 0. 0. 0. 0. 0. 2.94038240e-04 2.88904980e-02
      4.91081588e-02 3.89755750e-03 5.38247917e-03 2.54516234e-03 0. 0.
      0. 5.72170783e-03 1.19006321e-01 3.89480174e-01 2.00154737e-01
      3.89480174e-01 3.89480174e-01 3.89480174e-01 1.57420198e-03
      1.04871998e-03 1.76112935e-01 3.89480174e-01 6.50985539e-02
      9.40609053e-02 1.81035399e-01 1.68225840e-01 6.11100197e-02 0. 0.
      1.16003063e-02 1.68817967e-01 8.98669362e-02 2.60595791e-02
      3.37185077e-02 1.35909347e-02 0. 0. 0. 1.18882665e-02
      2.17140943e-01 2.12197173e-02 1.49268592e-02 1.99162532e-02
      5.85836824e-03 0. 0. 0. 1.42560597e-03 3.93947288e-02</_>
    <_>
      0. 0. 0. 0. 0. 0. 0. 0. 0. 0. 0. 0. 0. 6.37431303e-03
      4.91624582e-04 0. 0. 0. 0. 0. 0. 0. 0. 1.62656922e-02
      2.74082143e-02 6.33865036e-03 0. 4.41293061e-01 3.32646966e-01 0.
      0. 4.76510346e-01 5.07013202e-01 4.50570285e-01 3.59190255e-02
      4.20727208e-03 0. 0. 0. 1.27651077e-03 2.02538725e-02
      2.95997085e-03 0. 0. 0. 0. 0. 0. 4.81083617e-03 3.80772613e-02
      3.85096995e-03 0. 0. 0. 3.12960654e-01 1.80135071e-01
      1.41920825e-03 9.02402177e-02 3.39783639e-01 3.39783639e-01
      8.70295912e-02 3.17710713e-02 1.31104872e-01 2.38179743e-01
      1.34675935e-01 2.00830698e-01 3.39783639e-01 3.39783639e-01
      3.39783639e-01 2.83673331e-02 1.47186726e-01 3.39783639e-01 0. 0.
      0. 7.13720126e-03 3.97085138e-02 2.23566941e-03 0. 0. 0. 0. 0. 0.
      0. 0. 0. 0. 0. 0. 9.66661721e-02 1.65582880e-01 4.66375649e-01
      4.66375649e-01 4.66375649e-01 1.73616216e-01 3.60595882e-02
      2.69609332e-01 4.40907031e-01 0. 1.66385155e-02 7.28768483e-02
      1.75866354e-02 0. 0. 0. 0. 0. 2.33697589e-04 0. 0. 0. 0.
      1.01546086e-02 4.33529988e-02 1.47941187e-02 1.96162378e-03
      2.93666959e-01 2.86174923e-01 8.92597139e-02 1.45044299e-02
      1.62088603e-01 2.97601163e-01 2.97601163e-01 1.45023346e-01
      4.58459556e-02 1.32428657e-03 0. 0. 0. 0. 5.63616445e-03
      5.21838591e-02 2.12205704e-02 6.99419994e-03 2.97601163e-01
      2.34237731e-01 1.50885791e-01 4.02709991e-02 2.58115709e-01
      2.97601163e-01 2.97601163e-01 2.97601163e-01 2.97601163e-01
      2.24052012e-01 1.52015507e-01 3.21793668e-02 3.03519722e-02
      2.05004334e-01 2.24665925e-01 1.00348771e-01 4.21861410e-02
      7.72825703e-02 1.71478182e-01 1.60079286e-01 1.41848683e-01
      1.92427054e-01 2.24665925e-01 2.24665925e-01 6.73008710e-02
      9.65266973e-02 1.83012903e-01 2.24665925e-01 1.12695538e-01
      8.26644599e-02 3.08468565e-02 2.24665925e-01 1.84746176e-01
      1.28937230e-01 1.27733707e-01 2.24665925e-01 2.24665925e-01
      2.24665925e-01 2.21173242e-01 6.11885265e-02 2.24665925e-01
      2.16762438e-01 7.93992430e-02 6.97443187e-02 2.24665925e-01
      1.31981492e-01 3.13137621e-01 3.13137621e-01 3.13137621e-01
      1.89338595e-01 2.36350402e-01 1.17104113e-01 1.94753304e-01
      2.52992749e-01 4.30993859e-05 2.70667579e-02 6.17826879e-02
      7.76134990e-03 0. 0. 0. 0. 0. 2.97427326e-01 3.13137621e-01
      3.13137621e-01 1.18237846e-01 9.23157185e-02 3.05834681e-01
      1.33279607e-01 1.02200329e-01 2.05694452e-01 1.29298161e-04
      2.76783835e-02 3.76851819e-02 1.70701928e-03 0. 0. 0. 0. 0.
      2.91470066e-03 0. 0. 0. 0. 0. 3.68751138e-02 1.83366034e-02
      1.20293759e-02 4.26402241e-01 9.10960063e-02 1.39878750e-01
      5.68510294e-02 4.26104993e-01 2.27568194e-01 4.26402241e-01
      4.26402241e-01 4.26402241e-01 0. 0. 0. 0. 0. 0. 0. 0. 0.
      2.42974125e-02 0. 0. 0. 0. 0. 0. 1.17002998e-03 3.96837294e-02
      3.28525841e-01 5.20153418e-02 1.14774980e-01 4.25804444e-02
      3.28525841e-01 1.41268566e-01 1.28303856e-01 2.41912439e-01
      3.28525841e-01 3.28525841e-01 2.63249278e-01 3.28525841e-01
      8.79902393e-02 3.28525841e-01 1.69158205e-01 4.26666439e-02
      1.04326814e-01 3.28525841e-01 2.36906018e-02 1.96778550e-04
      1.54373050e-03 1.57516217e-04 0. 0. 0. 3.48928291e-03
      4.66487780e-02 4.28679511e-02 3.73879657e-03 1.66189615e-02
      8.92592070e-04 0. 0. 0. 7.64028309e-03 7.26641640e-02
      4.59616005e-01 4.59616005e-01 4.59616005e-01 1.72202781e-01
      1.51503280e-01 2.53307849e-01 6.91873729e-02 9.69901979e-02
      4.59616005e-01 1.85471115e-04 1.64670795e-02 8.84399656e-03 0. 0.
      0. 0. 0. 0. 7.72086158e-02 1.39023587e-02 5.51730953e-02
      2.22480483e-03 0. 0. 0. 1.08498419e-02 9.89193767e-02 0. 0. 0. 0.
      0. 0. 0. 0. 0.</_>
    <_>
      0. 0. 0. 0. 0. 0. 0. 0. 0. 0. 0. 0. 0. 4.65790257e-02
      2.20313277e-02 0. 0. 0. 0. 0. 0. 0. 0. 4.47499659e-03
      4.09668609e-02 6.72699884e-03 0. 3.58874887e-01 4.20521855e-01
      5.08539863e-02 7.29512051e-03 4.73175347e-01 4.73175347e-01
      4.73175347e-01 8.42432827e-02 6.18427582e-02 0. 0. 0.
      3.75932874e-03 7.36815110e-02 1.28345918e-02 0. 0. 0. 0. 0. 0.
      1.46393850e-02 8.93927068e-02 5.50102163e-03 0. 0. 0.
      3.30179781e-01 1.89648271e-01 2.70170905e-02 9.85643119e-02
      3.34879220e-01 3.34879220e-01 1.74394459e-01 6.70853183e-02
      1.96077198e-01 2.60590404e-01 1.17269225e-01 2.13310808e-01
      3.34879220e-01 3.34879220e-01 1.84533820e-01 7.79090300e-02
      2.02859983e-01 3.11461836e-01 0. 0. 0. 2.63901167e-02
      6.82836249e-02 0. 0. 0. 0. 0. 0. 0. 0. 0. 0. 0. 0. 0.
      1.03771903e-01 2.40787774e-01 4.73912865e-01 4.73912865e-01
      4.73912865e-01 4.99711111e-02 1.31582215e-01 3.69665504e-01
      2.93008655e-01 0. 1.97977498e-02 6.64921179e-02 1.57841220e-02 0.
      0. 0. 0. 0. 0. 0. 0. 0. 0. 2.18736939e-03 3.97559963e-02
      1.43446373e-02 0. 2.02756718e-01 2.97330022e-01 8.68835747e-02
      1.22134313e-01 2.11828232e-01 3.11163455e-01 3.11163455e-01
      2.99684763e-01 7.44563118e-02 0. 0. 0. 0. 0. 6.27002912e-04
      3.23471799e-02 1.66258644e-02 0. 2.75597334e-01 1.41636014e-01
      7.91364089e-02 1.80030704e-01 2.61330247e-01 1.20309345e-01
      3.11163455e-01 3.11163455e-01 3.11163455e-01 2.00311869e-01
      1.52721643e-01 4.72813062e-02 8.87628719e-02 2.23574623e-01
      2.23574623e-01 1.57497242e-01 9.69185010e-02 1.17488742e-01
      1.79024026e-01 1.66759297e-01 1.80722728e-01 2.22611994e-01
      2.23574623e-01 1.68231964e-01 9.00419503e-02 1.39748260e-01
      1.70712203e-01 2.23574623e-01 8.41831043e-02 5.32008559e-02
      1.00478813e-01 2.23574623e-01 9.95872095e-02 1.42483190e-01
      1.62459001e-01 2.23574623e-01 2.23574623e-01 2.15451956e-01
      1.93622440e-01 6.54803365e-02 2.20845029e-01 1.68964908e-01
      6.25604615e-02 5.56879453e-02 2.23574623e-01 1.54154107e-01
      3.23235959e-01 3.23235959e-01 3.23235959e-01 1.75878927e-01
      1.84797734e-01 1.71925977e-01 2.58385718e-01 1.69328660e-01
      4.50930202e-05 2.78278030e-02 5.54958433e-02 7.89010897e-03 0. 0.
      0. 0. 0. 2.72785515e-01 3.23235959e-01 3.23235959e-01
      1.16476387e-01 8.44676942e-02 2.24606708e-01 1.19830973e-01
      9.75913480e-02 2.92644322e-01 8.37441694e-05 2.31756661e-02
      3.12953554e-02 1.74233946e-03 0. 0. 0. 0. 0. 0. 0. 0. 0. 0. 0.
      2.13083997e-02 1.34942019e-02 0. 4.61450011e-01 0. 1.83509141e-02
      1.71175256e-01 3.32345873e-01 5.30696176e-02 4.61450011e-01
      4.61450011e-01 4.61450011e-01 0. 0. 0. 0. 0. 0. 0. 0. 0.
      7.15439953e-03 0. 0. 0. 0. 0. 0. 0. 7.15439953e-03 3.60934913e-01
      4.27671485e-02 3.68250124e-02 9.45985913e-02 3.58374238e-01
      7.46302009e-02 1.35844365e-01 2.58792430e-01 3.60934913e-01
      3.60934913e-01 2.71463424e-01 2.61503339e-01 7.16970190e-02
      2.77718037e-01 1.37414917e-01 1.12119606e-02 1.59897543e-02
      3.60934913e-01 4.99909278e-03 0. 0. 0. 0. 0. 0. 0. 4.99909278e-03
      6.19026367e-03 0. 0. 0. 0. 0. 0. 0. 6.19026367e-03 4.79467720e-01
      4.79467720e-01 4.79467720e-01 1.50933594e-01 1.13349944e-01
      1.97606191e-01 1.42373694e-02 0. 4.79467720e-01 1.05943131e-04
      1.34142861e-02 1.73315052e-02 0. 0. 0. 0. 0. 0. 1.21103106e-02 0.
      0. 0. 0. 0. 0. 0. 1.21103106e-02 0. 0. 0. 0. 0. 0. 0. 0. 0.</_>
    <_>
      0. 0. 0. 0. 0. 0. 0. 0. 0. 0. 0. 0. 0. 3.33463885e-02
      2.41873600e-02 0. 0. 0. 1.20770209e-03 1.82783091e-03 0. 0.
      1.39920274e-03 4.90938686e-02 7.78720826e-02 7.64597999e-03 0.
      4.35883224e-01 4.45702076e-01 6.94778748e-03 0. 4.45702076e-01
      4.45702076e-01 4.45702076e-01 2.39431933e-02 9.70905181e-03 0. 0.
      0. 1.06550264e-03 7.42326528e-02 2.40951721e-02 6.43400475e-04 0.
      0. 0. 2.37858421e-05 5.29589830e-04 2.48637795e-02 1.59094319e-01
      1.67351086e-02 7.86378223e-04 0. 0. 3.23394626e-01 2.21724465e-01
      2.24441895e-03 1.20967943e-02 3.23394626e-01 3.23394626e-01
      1.00760788e-01 1.00939451e-02 1.07175723e-01 3.23394626e-01
      1.30357057e-01 1.11564197e-01 3.23394626e-01 3.23394626e-01
      3.20218980e-01 9.90598574e-02 1.39751345e-01 3.23394626e-01 0.
      2.10882296e-04 3.35590914e-03 5.88519461e-02 1.67805314e-01
      1.74804684e-03 2.84191308e-04 0. 0. 0. 1.13552022e-04
      1.24841009e-03 4.29320708e-03 5.82976546e-03 0. 0. 0. 0.
      2.18098134e-01 3.14052492e-01 3.87835264e-01 3.87835264e-01
      3.87835264e-01 1.60846069e-01 1.81057125e-01 2.85941452e-01
      3.87835264e-01 1.44127784e-02 8.93335342e-02 2.26600721e-01
      1.19835511e-01 4.62593250e-02 1.72870525e-03 6.43666647e-03
      8.76975711e-03 8.67792522e-04 2.98236776e-03 4.06290311e-03
      3.71882168e-04 0. 1.71680823e-02 3.13426964e-02 6.61396906e-02
      1.82081722e-02 8.74718651e-03 2.24047467e-01 3.06378841e-01
      4.33105603e-02 2.75110379e-02 1.73119724e-01 3.06378841e-01
      3.06378841e-01 7.43396655e-02 6.43114075e-02 5.55150472e-02
      4.13728645e-03 4.54522524e-04 0. 1.58808827e-01 9.15684104e-02
      1.33066788e-01 7.14088157e-02 9.36301202e-02 3.06378841e-01
      2.15100437e-01 5.55172898e-02 7.55049810e-02 3.06378841e-01
      3.06378841e-01 3.06378841e-01 1.55301571e-01 3.06378841e-01
      2.31791183e-01 1.99209377e-01 2.71440279e-02 2.59415135e-02
      1.66032791e-01 2.39540681e-01 8.86585787e-02 1.56842396e-02
      6.22453690e-02 2.39540681e-01 1.81946084e-01 7.10144714e-02
      1.10837124e-01 2.33357757e-01 2.39540681e-01 9.64866877e-02
      6.58252314e-02 1.76461101e-01 2.39540681e-01 1.16909854e-01
      5.96631095e-02 7.80598521e-02 2.39540681e-01 2.39540681e-01
      7.03816712e-02 2.02968847e-02 2.07903817e-01 2.39540681e-01
      1.84088245e-01 9.75553244e-02 1.44492835e-01 2.39540681e-01
      2.39540681e-01 5.56493029e-02 2.18910053e-02 2.39540681e-01
      2.61241406e-01 2.61241406e-01 2.61241406e-01 2.61241406e-01
      2.56879359e-01 2.50784039e-01 1.73508808e-01 1.33878127e-01
      1.96883664e-01 2.06521042e-02 8.07594284e-02 1.09973997e-01
      3.82252336e-02 1.33942943e-02 1.73905934e-03 5.59498789e-03
      4.63293027e-03 3.20328632e-04 2.61241406e-01 2.61241406e-01
      2.61241406e-01 2.61241406e-01 2.61241406e-01 2.06532001e-01
      8.53516236e-02 6.32305667e-02 2.61241406e-01 2.99403761e-02
      6.01104759e-02 1.07940048e-01 7.65106082e-02 3.29153724e-02
      8.14041181e-04 2.18990934e-03 6.97201630e-03 3.76462601e-02
      1.67671278e-01 7.33330206e-04 1.35515642e-04 0. 2.01103657e-01
      1.16006710e-01 1.91206098e-01 1.16228804e-01 2.52857268e-01
      4.04327005e-01 3.77876274e-02 1.75262392e-02 4.98214550e-02
      4.04327005e-01 4.04327005e-01 2.47894913e-01 1.66404918e-01
      4.04327005e-01 3.08578704e-02 0. 0. 0. 0. 0. 1.06309000e-02
      6.11324841e-03 4.26773056e-02 1.65087968e-01 1.19626499e-03 0. 0.
      0. 0. 1.02894921e-02 7.43256928e-03 1.49395734e-01 3.51523012e-01
      4.22818139e-02 5.15498891e-02 7.93685839e-02 3.34032029e-01
      3.46441746e-01 4.14441936e-02 1.77466553e-02 3.51523012e-01
      3.51523012e-01 9.74501148e-02 1.41698152e-01 2.27990866e-01
      3.51523012e-01 1.57937333e-01 1.16402516e-02 3.87955047e-02
      3.51523012e-01 9.48395580e-02 1.02015631e-03 0. 0. 0. 0.
      3.72443174e-04 5.29756770e-04 6.98066205e-02 6.53394163e-02
      2.66504590e-03 3.85122094e-03 1.09190660e-04 0. 0. 0.
      2.04186910e-03 8.92497078e-02 3.91275615e-01 2.24627256e-01
      3.91275615e-01 3.91275615e-01 3.91275615e-01 3.99592631e-02
      7.98017625e-03 1.23168766e-01 3.91275615e-01 7.62734860e-02
      7.92838186e-02 2.47557908e-01 1.39841065e-01 4.82101068e-02 0. 0.
      1.72551423e-02 1.59030572e-01 8.84192139e-02 2.10273545e-02
      2.95133777e-02 6.28144713e-04 0. 0. 0. 6.48256810e-03
      1.77646071e-01 1.86844133e-02 1.21134445e-02 1.64187606e-02
      2.31951039e-04 0. 0. 0. 9.08165704e-04 3.10625173e-02</_>
    <_>
      0. 0. 0. 0. 2.78635975e-03 5.94357355e-03 2.00130962e-04 0. 0.
      4.97049885e-03 1.73492648e-03 0. 0. 1.53976724e-01 1.18877672e-01
      6.00392872e-04 0. 1.45512412e-03 2.19776463e-02 2.78891157e-02
      1.96286179e-02 5.05374791e-03 2.23184228e-02 2.68965364e-01
      1.48202106e-01 6.54989704e-02 2.68858802e-02 4.32737321e-01
      3.56139034e-01 1.19853981e-01 6.98194653e-02 4.32737321e-01
      4.32737321e-01 3.27813178e-01 1.19510211e-01 1.63311467e-01
      1.03873992e-02 2.83072470e-03 6.70510111e-04 1.12230992e-02
      1.90265566e-01 7.10339770e-02 7.54160283e-05 7.57739763e-04
      6.10734383e-03 9.01151914e-03 1.88779109e-03 6.70831930e-03
      7.68078342e-02 1.93226621e-01 2.22946536e-02 0. 2.81019928e-03
      1.16726821e-02 3.11214745e-01 1.57511652e-01 2.96034664e-02
      7.44930059e-02 3.11214745e-01 3.11214745e-01 5.79239391e-02
      3.48405205e-02 2.31047556e-01 3.11214745e-01 1.54173523e-01
      1.75616890e-01 3.11214745e-01 3.11214745e-01 2.27129504e-01
      1.34760499e-01 1.40810311e-01 3.11214745e-01 2.70919898e-03 0.
      1.93802547e-02 1.57974839e-01 1.37618780e-01 0. 0. 3.79498932e-03
      1.18552195e-02 0. 0. 1.14965113e-03 1.58262928e-03 0. 0. 0. 0. 0.
      1.59518570e-01 3.84643048e-01 3.84643048e-01 3.84643048e-01
      3.84643048e-01 2.06417978e-01 2.57672757e-01 2.55632728e-01
      3.84643048e-01 1.75566459e-03 3.97295468e-02 9.67566445e-02
      3.50413062e-02 0. 0. 0. 0. 0. 1.72541048e-02 2.47379635e-02
      2.49949433e-02 9.05945338e-03 8.19998700e-03 1.31683066e-01
      1.18378416e-01 1.11394264e-01 6.11568540e-02 2.74079055e-01
      2.59751737e-01 2.15283185e-01 1.46142200e-01 2.64125824e-01
      2.74079055e-01 2.74079055e-01 2.74079055e-01 2.74079055e-01
      5.22466004e-03 6.60600280e-03 1.07642002e-02 5.69320936e-03
      9.68710112e-04 1.20291803e-02 3.30892131e-02 6.97032288e-02
      4.82322574e-02 1.78996101e-01 7.80160278e-02 1.44504517e-01
      1.13174297e-01 1.51411325e-01 2.29210168e-01 2.47746155e-01
      2.74079055e-01 2.74079055e-01 2.28586718e-01 1.29003361e-01
      7.40928575e-02 7.14952275e-02 2.05462053e-01 2.28586718e-01
      7.26736039e-02 5.12857176e-02 1.45331010e-01 2.28586718e-01
      2.28586718e-01 9.69670117e-02 1.65939569e-01 1.45176589e-01
      2.28586718e-01 1.41711414e-01 6.18841164e-02 1.57845289e-01
      1.58963010e-01 1.14120983e-01 7.91990459e-02 1.12556659e-01
      1.61907539e-01 2.28586718e-01 9.69905704e-02 9.38567892e-02
      2.28586718e-01 2.19496235e-01 2.28586718e-01 8.00951123e-02
      2.28586718e-01 2.28586718e-01 2.28586718e-01 6.29475564e-02
      7.16910213e-02 2.28586718e-01 2.36580387e-01 2.86295474e-01
      2.86295474e-01 2.86295474e-01 9.48945582e-02 2.62897521e-01
      2.11815730e-01 1.00962467e-01 1.40953124e-01 1.74695335e-03
      3.71519215e-02 5.17669022e-02 1.25213154e-02 1.59500178e-03 0. 0.
      0. 0. 2.86295474e-01 2.86295474e-01 2.54554838e-01 2.86295474e-01
      2.86295474e-01 1.44693956e-01 7.08414689e-02 1.27523229e-01
      2.86295474e-01 1.63933542e-02 2.40776706e-02 8.30534995e-02
      9.79560837e-02 4.34430763e-02 0. 0. 1.00631695e-02 4.28119898e-02
      1.39738340e-03 0. 0. 0. 0. 0. 1.43248802e-02 1.89554412e-02
      1.76192764e-02 4.41227645e-01 5.99136241e-02 8.23972002e-02
      2.50288118e-02 1.77994311e-01 4.15677845e-01 4.41227645e-01
      4.41227645e-01 4.41227645e-01 0. 0. 0. 0. 0. 0. 0. 0. 0.
      1.40246237e-02 0. 0. 0. 0. 0. 0. 0. 1.77834909e-02 2.87844837e-01
      1.01068750e-01 5.06561473e-02 1.25730366e-01 1.39481097e-01
      1.83247417e-01 1.12948492e-01 1.41411141e-01 3.62995028e-01
      3.61727834e-01 1.45183086e-01 1.74159274e-01 3.62995028e-01
      3.62995028e-01 9.21525285e-02 1.48097659e-02 2.34590381e-01
      3.62995028e-01 1.26961116e-02 0. 0. 0. 0. 0. 8.42350232e-07
      7.87313795e-04 2.91207805e-02 4.55645509e-02 1.65197917e-03
      1.11836893e-02 8.35102703e-03 7.33265479e-04 0. 1.60046693e-05
      1.78339258e-02 1.49920523e-01 3.38993609e-01 9.98602137e-02
      3.73229027e-01 3.73229027e-01 3.73229027e-01 5.32320654e-03
      3.13891913e-03 2.87144214e-01 3.73229027e-01 7.62751922e-02
      3.96567360e-02 2.20539331e-01 1.96829006e-01 6.49439245e-02 0. 0.
      3.28942575e-02 1.80488825e-01 9.40372422e-02 1.49197625e-02
      6.78147748e-02 3.74393947e-02 3.68608930e-03 0. 1.90378541e-05
      4.03512679e-02 2.72762835e-01 3.27659473e-02 1.23867365e-02
      4.68561836e-02 1.69270188e-02 1.72034604e-03 0. 0. 7.98701681e-03
      6.45269305e-02</_>
    <_>
      0. 0. 0. 0. 2.09981506e-03 7.87522236e-04 0. 0. 0. 0. 0. 0.
      4.68252599e-03 5.68716861e-02 7.24975811e-03 0. 0. 0.
      2.72896024e-03 8.30890145e-03 3.36733181e-03 0. 4.26426604e-02
      1.86962172e-01 1.41580388e-01 9.56445113e-02 1.84607282e-02
      3.70203227e-01 2.83006757e-01 1.07326768e-01 2.76988357e-01
      3.98238987e-01 3.98238987e-01 3.58548194e-01 3.37108463e-01
      2.48074189e-01 0. 0. 0. 3.28402827e-03 3.92925590e-02
      2.16948800e-03 0. 0. 0. 0. 0. 0. 5.11761697e-04 1.51017327e-02 0.
      0. 0. 0. 2.72586614e-01 1.37245342e-01 4.82724495e-02
      3.67161900e-01 3.71584654e-01 2.91416377e-01 6.18935786e-02
      1.61525354e-01 3.11962992e-01 1.00155398e-01 4.15853113e-02
      7.60938153e-02 3.71584654e-01 3.71584654e-01 2.43688636e-02
      4.62512001e-02 1.28090188e-01 3.18025380e-01 0. 0. 0. 0.
      6.84269937e-03 0. 0. 0. 0. 0. 0. 0. 0. 0. 0. 0. 0. 0.
      5.79266846e-02 1.57133564e-01 5.00488341e-01 5.22296250e-01
      5.22296250e-01 2.27818042e-02 1.33035198e-01 1.82472914e-01
      3.31402451e-01 3.17948652e-05 1.85205135e-02 8.04702714e-02
      4.90660667e-02 6.93808123e-03 0. 0. 0. 0. 6.88458746e-03
      1.00714006e-02 5.17232111e-03 0. 1.42230866e-02 9.49974731e-02
      1.17257245e-01 1.22010976e-01 3.70051451e-02 2.90769935e-01
      2.90769935e-01 1.73277006e-01 1.39855444e-01 2.90769935e-01
      2.90769935e-01 2.90769935e-01 2.90769935e-01 2.90769935e-01
      6.51391037e-03 4.65434371e-03 2.78509664e-03 0. 1.96333887e-04
      8.80606472e-03 3.38600315e-02 6.01951182e-02 2.78821830e-02
      1.88926429e-01 1.31209642e-01 1.04803070e-01 3.74207273e-02
      1.20556884e-01 1.05743259e-01 2.24660143e-01 2.90769935e-01
      2.90769935e-01 1.85161144e-01 9.58455503e-02 5.17178848e-02
      1.61425307e-01 2.62489080e-01 1.56286210e-01 6.91661611e-02
      1.37291297e-01 2.62489080e-01 1.12541623e-01 1.35570467e-01
      1.00014381e-01 2.62489080e-01 2.62489080e-01 1.39051929e-01
      6.72740936e-02 1.07753389e-01 2.62489080e-01 1.04741767e-01
      5.09724021e-02 3.79304029e-02 8.15801993e-02 1.83203980e-01
      9.27160457e-02 7.62474239e-02 1.24494351e-01 2.62489080e-01
      1.48389325e-01 2.27342412e-01 1.60789162e-01 2.21606553e-01
      1.87191650e-01 1.75346240e-01 5.82826808e-02 1.23714566e-01
      2.62489080e-01 1.27207115e-01 3.09813708e-01 3.09813708e-01
      3.09813708e-01 2.44864747e-01 1.57196611e-01 1.16545379e-01
      1.04320526e-01 1.97123960e-01 3.81230167e-03 3.43632847e-02
      6.34900182e-02 2.16105971e-02 2.51100725e-03 0. 0. 0. 0.
      2.69731909e-01 3.09813708e-01 3.09813708e-01 3.09813708e-01
      1.04463652e-01 1.99545875e-01 9.37581286e-02 1.23379998e-01
      3.09813708e-01 9.69997700e-03 4.49357741e-02 7.18279183e-02
      1.86981261e-02 8.28731863e-04 0. 0. 0. 3.95600777e-03
      1.38262063e-02 0. 0. 0. 0. 0. 3.25029669e-03 1.08343235e-03
      2.74590794e-02 3.49956751e-01 0. 0. 7.77012929e-02 2.25298926e-01
      1.47837088e-01 5.29432178e-01 3.83077472e-01 6.04022026e-01 0. 0.
      0. 0. 0. 0. 0. 0. 0. 0. 0. 0. 0. 0. 0. 0. 0. 0. 1.21726356e-01
      2.82849185e-02 1.53008625e-02 7.49778822e-02 1.39684573e-01
      7.55819678e-02 7.87722841e-02 1.61828965e-01 4.16674227e-01
      3.50725472e-01 3.22335452e-01 3.43409508e-01 3.18169475e-01
      1.48261383e-01 1.53478980e-01 1.32147893e-02 2.76199669e-01
      4.16674227e-01 5.59317879e-04 0. 0. 0. 0. 0. 0. 1.50184147e-04
      1.93479855e-03 1.77891571e-02 1.44116895e-03 3.01681971e-03 0. 0.
      0. 0. 2.85350159e-03 3.32144462e-02 4.27432597e-01 4.27432597e-01
      4.27432597e-01 4.27432597e-01 4.85368706e-02 1.15722217e-01
      1.85752194e-03 2.20040634e-01 4.27432597e-01 2.36791298e-02
      4.21507135e-02 9.60243344e-02 2.63199657e-02 0. 0. 0. 0.
      2.10723504e-02 3.87222730e-02 5.27271163e-03 1.13703897e-02 0. 0.
      0. 0. 4.36426140e-03 6.06212281e-02 2.70411419e-03 1.10519945e-03
      2.53070216e-03 0. 0. 0. 0. 0. 2.83845258e-03</_>
    <_>
      0. 0. 0. 0. 3.66668729e-03 3.81938461e-03 0. 0. 0. 0. 0.
      2.73452722e-04 8.74597207e-03 1.46987215e-01 6.82653934e-02
      1.41151901e-03 0. 0. 6.83051795e-02 2.12458838e-02 0. 0.
      4.03540470e-02 2.10886806e-01 1.57538384e-01 3.35014462e-02
      1.90902110e-02 4.30656433e-01 2.31632054e-01 7.36950245e-03
      1.69582054e-01 4.30656433e-01 4.30656433e-01 4.30656433e-01
      7.88023099e-02 2.47521251e-01 0. 0. 5.76107122e-04 2.26102490e-02
      1.27114698e-01 2.69306339e-02 8.95682897e-04 0. 0. 0. 0.
      4.71360341e-04 2.62024030e-02 7.75438026e-02 2.39121262e-03
      1.58061652e-04 0. 0. 3.33976686e-01 6.90014958e-02 2.39120834e-02
      3.22025657e-01 3.33976686e-01 3.33976686e-01 7.79371411e-02
      8.08774233e-02 3.33976686e-01 1.26009434e-01 2.80842185e-03
      8.30179825e-02 3.33976686e-01 3.33976686e-01 2.15368643e-02
      7.10346410e-03 2.16419354e-01 3.33976686e-01 0. 0. 0.
      1.58934202e-02 3.53974514e-02 0. 0. 0. 0. 0. 0. 0. 0.
      5.75485174e-05 0. 0. 0. 0. 3.63252945e-02 1.09710963e-02
      3.02839518e-01 4.56775099e-01 4.56775099e-01 1.01438602e-02
      2.41879970e-02 4.46866125e-01 4.56775099e-01 0. 8.97635147e-03
      1.06686093e-01 2.48045355e-01 2.37690620e-02 3.38128628e-03
      5.37748821e-03 2.81137247e-02 9.37504787e-03 6.57003820e-02
      1.71098579e-02 0. 0. 1.62157286e-02 9.69303921e-02 1.26051366e-01
      4.57661077e-02 3.05052176e-02 2.96479672e-01 1.54702306e-01
      1.07072974e-02 2.96479672e-01 2.96479672e-01 2.96479672e-01
      2.96479672e-01 2.92550385e-01 2.96479672e-01 2.08208039e-02
      3.84855084e-03 0. 0. 3.10247252e-03 7.66108418e-03 3.81379165e-02
      2.51956992e-02 1.87988970e-02 1.29248351e-01 2.64287870e-02
      1.05049703e-02 2.75842547e-01 1.53368577e-01 4.82688434e-02
      1.69134751e-01 2.96479672e-01 2.96479672e-01 2.20939323e-01
      3.76757681e-02 1.76527519e-02 2.46748447e-01 2.46748447e-01
      1.09230608e-01 5.85868359e-02 1.28844067e-01 2.46748447e-01
      1.01622738e-01 3.47077921e-02 7.29620010e-02 2.46748447e-01
      2.46748447e-01 5.38487136e-02 4.25858423e-02 2.02360377e-01
      2.46748447e-01 5.48205450e-02 2.53518149e-02 3.70833427e-02
      2.46748447e-01 1.46381721e-01 9.63994954e-03 3.58276777e-02
      2.33906657e-01 2.46748447e-01 1.79236516e-01 1.24631688e-01
      1.14329390e-01 2.46748447e-01 2.22310707e-01 7.76790753e-02
      6.72099367e-02 2.01035202e-01 2.46748447e-01 1.36379406e-01
      1.47792786e-01 2.68761992e-01 2.68761992e-01 2.31154099e-01
      1.22193053e-01 1.24656714e-01 2.68761992e-01 2.68761992e-01
      3.48318368e-02 6.86915293e-02 1.54969096e-01 1.44120634e-01
      9.29902494e-03 1.35515044e-02 2.48605739e-02 2.81498563e-02
      1.05349123e-02 2.68761992e-01 2.68761992e-01 2.68761992e-01
      2.45413870e-01 1.83522627e-01 1.84553549e-01 1.65994063e-01
      1.90097421e-01 2.68761992e-01 1.01854347e-01 1.17462836e-01
      1.45412490e-01 6.13792241e-02 3.60207492e-03 1.77226905e-02
      3.01256757e-02 1.95532776e-02 1.53387049e-02 1.38135592e-03 0. 0.
      0. 0. 0. 6.25251513e-03 2.31413133e-02 1.96899585e-02
      7.55937248e-02 0. 1.88294388e-02 2.95553714e-01 6.73851445e-02 0.
      4.51521426e-02 6.67969584e-01 6.67969584e-01 0. 0. 0. 0. 0. 0. 0.
      0. 0. 2.50963058e-04 0. 0. 0. 0. 0. 0. 0. 2.50963058e-04
      7.24445805e-02 6.06761202e-02 9.26580578e-02 2.18972653e-01
      9.56508741e-02 7.95732660e-04 1.71666071e-02 3.35184783e-01
      3.35184783e-01 3.35184783e-01 2.97257662e-01 3.20765853e-01
      3.28081131e-01 2.16198936e-01 7.36476928e-02 7.08329454e-02
      3.35184783e-01 3.35184783e-01 4.57622809e-03 1.38837402e-03
      1.83149334e-03 6.42189116e-04 0. 0. 0. 8.12359899e-03
      1.73309613e-02 1.93646681e-02 8.70204624e-03 1.72293130e-02
      3.63907218e-03 0. 0. 0. 1.68987326e-02 4.98533174e-02
      4.19378847e-01 4.19378847e-01 4.19378847e-01 2.21950933e-01
      2.32450992e-01 2.15895653e-01 1.73041180e-01 1.51564315e-01
      4.19378847e-01 2.19548509e-01 1.63534746e-01 9.47993174e-02 0.
      1.84769195e-03 1.71142127e-02 2.62079146e-02 2.26660050e-03
      3.06755267e-02 2.19509434e-02 1.25700077e-02 2.83676647e-02
      4.67992295e-03 0. 0. 0. 1.13298558e-02 4.49272394e-02 0. 0. 0. 0.
      0. 0. 0. 0. 0.</_>
    <_>
      0. 0. 0. 0. 6.63892832e-04 3.91440029e-04 7.44995021e-04
      1.65973208e-04 0. 0. 0. 0. 9.41537693e-03 1.00388393e-01
      1.51736457e-02 7.51598226e-03 9.40515019e-04 0. 2.22192216e-03
      1.73415232e-03 5.89753408e-03 2.12571509e-02 5.00014946e-02
      5.82113191e-02 1.45153031e-01 3.81746851e-02 0. 2.52231956e-01
      4.29038256e-02 1.39783099e-01 3.81187975e-01 3.81187975e-01
      3.81187975e-01 3.81187975e-01 3.81187975e-01 3.81187975e-01 0. 0.
      0. 1.38820335e-02 8.20178539e-02 6.99539948e-03 2.42748624e-03
      2.32379491e-04 0. 0. 0. 0. 6.67786738e-03 2.16233619e-02
      2.23895899e-04 0. 0. 0. 1.95383251e-01 4.50137369e-02
      1.58662274e-01 3.50404859e-01 3.50404859e-01 2.68580586e-01
      1.74512014e-01 3.14368457e-01 3.50404859e-01 5.33400439e-02
      7.58847073e-02 2.21670717e-01 3.50404859e-01 3.50404859e-01
      7.44085014e-02 2.38686781e-02 1.45502865e-01 1.52589113e-01 0. 0.
      0. 1.05089054e-03 4.53254953e-03 0. 0. 0. 0. 0. 0. 0. 0. 0. 0. 0.
      0. 0. 7.06990436e-02 3.60214740e-01 6.13121271e-01 6.13121271e-01
      2.94605434e-01 3.93726230e-02 5.06362133e-02 1.24249458e-01
      3.03910989e-02 0. 0. 0. 0. 0. 0. 0. 0. 0. 2.95821554e-03
      9.34847456e-04 5.16559277e-03 1.96346324e-02 2.81782411e-02
      2.82385405e-02 1.50237486e-01 6.70469105e-02 3.26802321e-02
      1.66202158e-01 3.13397646e-02 1.12928443e-01 3.20404530e-01
      3.20404530e-01 2.26936877e-01 3.20404530e-01 3.20404530e-01
      3.20404530e-01 4.28312598e-03 1.64973040e-04 1.98488054e-03
      8.99114087e-03 7.19248084e-03 5.92421368e-03 8.82279351e-02
      5.83885908e-02 5.35552800e-02 1.12818688e-01 1.51429288e-02
      4.40600365e-02 2.06948832e-01 2.51228124e-01 5.89296483e-02
      2.32499987e-01 2.55372792e-01 3.20404530e-01 1.26696691e-01
      8.83842707e-02 1.15809098e-01 2.70757765e-01 2.70757765e-01
      1.54085800e-01 9.48335305e-02 1.86431438e-01 2.70757765e-01
      7.12763816e-02 1.49623737e-01 1.85765088e-01 2.70757765e-01
      1.89653635e-01 8.30866769e-02 2.27178745e-02 1.01270929e-01
      1.56399637e-01 1.09630875e-01 8.76598284e-02 7.68256634e-02
      1.63583577e-01 2.12303102e-01 7.75972679e-02 4.01314236e-02
      1.22989312e-01 2.70757765e-01 1.11350887e-01 1.55674294e-01
      1.93955332e-01 2.70757765e-01 1.53380096e-01 5.41573763e-02
      1.16932318e-02 1.35032177e-01 2.70757765e-01 6.82054088e-02
      2.21860990e-01 3.49061489e-01 3.49061489e-01 1.41294554e-01
      1.57303158e-02 1.91406086e-02 5.90475202e-02 5.32724895e-02 0.
      6.21746411e-04 3.76226986e-03 4.17806068e-03 1.11537182e-03 0. 0.
      0. 0. 2.20530421e-01 3.13775510e-01 3.49061489e-01 3.49061489e-01
      2.86246598e-01 8.47017206e-03 9.85196047e-03 2.68388182e-01
      3.49061489e-01 8.31271242e-03 2.18273383e-02 6.40549213e-02
      2.29637157e-02 4.29708418e-03 0. 0. 0. 7.84181338e-03
      1.61156375e-02 0. 0. 0. 0. 0. 3.09627149e-02 8.58023614e-02
      1.54890135e-01 4.06627983e-01 2.71654297e-02 1.21809430e-02 0.
      9.89733189e-02 0. 5.98568246e-02 4.37894166e-01 7.67078996e-01 0.
      0. 0. 0. 0. 0. 0. 0. 0. 0. 0. 0. 0. 0. 0. 0. 0. 0. 1.70207396e-01
      5.39951660e-02 6.20884970e-02 1.05487145e-01 6.39817119e-02 0.
      2.29085539e-03 1.46808758e-01 4.33030039e-01 2.81524032e-01
      1.40294835e-01 3.43629599e-01 4.33030039e-01 1.56678110e-01 0. 0.
      3.44041616e-01 4.33030039e-01 3.50080838e-04 0. 0. 0. 0. 0. 0. 0.
      9.51113703e-04 1.26273781e-02 1.76570471e-03 2.97389459e-04 0. 0.
      0. 0. 0. 2.26529781e-02 3.96120101e-01 2.79821992e-01
      4.36861128e-01 4.36861128e-01 1.97769716e-01 0. 0. 3.63007963e-01
      4.36861128e-01 2.20365599e-02 4.27026525e-02 1.03004836e-01
      2.42879707e-02 3.79480375e-03 0. 0. 0. 2.09152251e-02
      2.95572560e-02 6.63161976e-03 1.62149547e-03 0. 0. 0. 0. 0.
      4.58634309e-02 2.00191326e-03 1.25506974e-03 5.40498469e-04 0. 0.
      0. 0. 0. 1.94289547e-03</_>
    <_>
      9.84730944e-03 2.46740854e-03 6.79656514e-04 0. 9.95658189e-02
      6.39022589e-02 1.39296595e-02 6.08980015e-04 3.77390534e-03
      3.91547680e-02 2.32931180e-03 5.56082639e-04 2.32488122e-02
      3.07429552e-01 7.46564046e-02 5.60110575e-03 1.19464064e-04
      3.43882181e-02 1.64713398e-01 6.00571297e-02 1.07259408e-01
      1.29420519e-01 2.94157833e-01 3.07429552e-01 2.26876751e-01
      2.18921930e-01 1.46626607e-01 3.07429552e-01 6.11229390e-02
      1.38464168e-01 3.04490775e-01 3.07429552e-01 3.07429552e-01
      7.74044916e-02 1.36530355e-01 3.07429552e-01 2.14469004e-02
      1.16492309e-04 3.59537516e-05 5.83589152e-02 3.02865624e-01
      1.11436471e-02 2.01232091e-04 1.17729360e-03 3.54433283e-02
      2.67700641e-03 0. 4.33739246e-04 7.89559036e-02 1.73722818e-01 0.
      0. 1.62180874e-03 1.37729952e-02 3.32560897e-01 4.90845973e-03
      2.85847299e-02 2.79568821e-01 3.55689257e-01 3.51042338e-02
      1.14708976e-03 3.55433151e-02 3.55689257e-01 1.24266967e-01
      3.67315843e-05 1.40261166e-02 3.55689257e-01 3.55689257e-01
      1.75456516e-02 3.48848663e-03 1.49100438e-01 3.55689257e-01
      6.90739602e-04 0. 6.50065078e-04 7.64608532e-02 9.78708118e-02 0.
      0. 6.20334758e-04 2.72604916e-03 0. 0. 0. 2.85612443e-03
      3.67379352e-03 0. 0. 0. 0. 5.68387397e-02 2.69353688e-02
      1.34715334e-01 4.31935072e-01 4.31935072e-01 8.40381235e-02
      3.11474055e-02 3.90949100e-01 4.31935072e-01 0. 3.73630114e-02
      1.54358968e-01 4.31935072e-01 1.05588727e-01 2.98545025e-02
      2.06979830e-02 9.40505862e-02 6.66577369e-02 8.98110643e-02
      3.33868153e-02 9.74668190e-02 1.75140381e-01 8.49861503e-02
      1.10629983e-01 1.70766488e-01 2.71619678e-01 2.28167772e-01
      2.71619678e-01 3.61548699e-02 2.14344114e-01 2.71619678e-01
      2.71619678e-01 9.56965983e-02 1.23312533e-01 2.71619678e-01
      2.71619678e-01 1.39870113e-02 5.19118330e-04 1.79187674e-02
      5.20208701e-02 7.97677319e-03 1.24609249e-03 6.21123649e-02
      1.37910753e-01 1.37342826e-01 1.64124236e-01 1.65367883e-03
      1.03234619e-01 2.19749480e-01 2.48104304e-01 3.73827759e-03
      1.14517249e-01 2.31501520e-01 2.71619678e-01 1.60912514e-01
      3.04945186e-03 5.79006486e-02 1.75435424e-01 2.83540457e-01
      7.83557817e-03 1.41093144e-02 4.48561721e-02 2.83540457e-01
      1.15905970e-01 6.37627486e-03 1.85645223e-02 2.83540457e-01
      2.83540457e-01 8.80214646e-02 3.17204297e-02 1.24372110e-01
      2.83540457e-01 1.51455194e-01 7.11502274e-04 4.47676629e-02
      1.29019186e-01 2.83540457e-01 2.51275906e-03 1.88006032e-02
      5.70765026e-02 2.83540457e-01 1.66060537e-01 8.62986594e-03
      3.42152230e-02 2.83540457e-01 2.83540457e-01 8.93269032e-02
      3.60079110e-02 9.77964997e-02 2.83540457e-01 1.67928010e-01
      8.69783312e-02 9.86831412e-02 2.68701702e-01 2.39711657e-01
      1.64450765e-01 5.62318079e-02 2.18796596e-01 2.68701702e-01
      8.64996538e-02 9.86968726e-02 1.30118936e-01 2.58255035e-01
      5.44009022e-02 4.23623659e-02 2.10148003e-02 6.69479072e-02
      5.14635816e-02 2.68701702e-01 9.95091945e-02 9.96080264e-02
      2.68701702e-01 2.68701702e-01 1.52992383e-01 5.00604585e-02
      1.52736962e-01 2.68701702e-01 1.56002775e-01 1.23046130e-01
      1.55326113e-01 2.68701702e-01 1.22724943e-01 3.44477110e-02
      1.24667427e-02 5.60999326e-02 2.13242188e-01 4.44840863e-02 0.
      1.82120840e-03 1.12953279e-02 2.09460477e-03 2.19765864e-03
      1.18372545e-01 1.12347029e-01 1.94307342e-01 5.24369895e-01 0.
      1.03201838e-02 1.59758523e-01 4.49369252e-01 6.59297686e-03
      2.35149577e-01 3.08912188e-01 5.24369895e-01 0. 0. 0. 0. 0. 0. 0.
      0. 0. 0. 0. 0. 0. 0. 0. 0. 0. 0. 2.89977312e-01 0. 1.22278947e-02
      9.11784023e-02 2.69471586e-01 1.70226290e-03 1.41404793e-02
      6.70842081e-02 4.33027357e-01 3.58213097e-01 6.75284956e-03
      5.06373867e-02 4.29341644e-01 3.22671354e-01 3.61117274e-02
      2.28440464e-02 1.68730468e-01 4.33027357e-01 5.12453553e-04 0. 0.
      0. 0. 0. 0. 0. 5.12453553e-04 1.16840666e-02 0. 0. 0. 0. 0. 0.
      1.08228554e-03 3.11361328e-02 3.31629664e-01 5.40745035e-02
      1.23830706e-01 3.82925540e-01 2.62350768e-01 2.62578316e-02
      1.44231729e-02 1.66412055e-01 3.82925540e-01 1.98529795e-01
      1.20997801e-01 2.69297898e-01 3.82925540e-01 1.60563946e-01
      1.91740831e-03 8.20772781e-04 7.51047060e-02 3.82925540e-01
      3.10488343e-02 4.72326297e-03 6.56150002e-03 2.70034117e-03 0. 0.
      0. 4.95700724e-03 1.05263822e-01 3.71209010e-02 1.62707772e-02
      2.31746063e-02 6.79307664e-03 0. 0. 0. 4.84460033e-03
      1.07698642e-01</_>
    <_>
      0. 0. 0. 0. 1.40837790e-03 0. 0. 0. 0. 0. 0. 0. 0. 4.12768163e-02
      0. 0. 0. 0. 4.78524016e-03 1.06997555e-02 1.06314346e-02
      8.74545891e-03 4.23775464e-02 1.74667701e-01 1.61929518e-01
      7.66771287e-02 1.01433378e-02 4.03979450e-01 2.54220098e-01
      1.22795798e-01 1.63256377e-01 4.32971328e-01 4.32971328e-01
      4.20289963e-01 2.31339365e-01 2.33421355e-01 0. 0. 0. 0.
      3.73390168e-02 0. 0. 0. 0. 0. 0. 0. 0. 2.25015730e-02 0. 0. 0. 0.
      3.13035309e-01 1.42660424e-01 5.99534884e-02 2.00090915e-01
      4.01137173e-01 3.06133419e-01 7.17608333e-02 1.35525122e-01
      2.68489242e-01 1.35581017e-01 1.20872892e-01 2.14372411e-01
      4.01137173e-01 4.01137173e-01 1.04898259e-01 2.96229012e-02
      1.73598096e-01 1.97734699e-01 0. 0. 0. 0. 1.89996473e-02 0. 0. 0.
      0. 0. 0. 0. 0. 0. 0. 0. 0. 0. 1.75098017e-01 3.85435283e-01
      4.90353495e-01 4.90353495e-01 4.90353495e-01 9.76471007e-02
      5.88430986e-02 2.55106151e-01 1.26755506e-01 0. 1.96205219e-03
      5.88615611e-03 0. 0. 0. 0. 0. 0. 5.14479773e-03 1.01792924e-02
      1.05873141e-02 9.32404771e-03 1.21000484e-02 7.90552720e-02
      1.25519320e-01 1.13295190e-01 2.71978732e-02 2.96524376e-01
      1.87279671e-01 1.47641510e-01 2.58505195e-01 3.00226629e-01
      3.00226629e-01 3.00226629e-01 3.00226629e-01 3.00226629e-01
      3.09397280e-03 4.38394491e-03 5.01773041e-03 4.86680213e-03
      2.96417449e-04 1.03227664e-02 4.47213240e-02 8.14987645e-02
      2.87861489e-02 1.22211389e-01 6.21673428e-02 8.91236514e-02
      1.92683116e-01 1.29044786e-01 1.25079602e-01 1.12007976e-01
      3.00226629e-01 3.00226629e-01 2.04070926e-01 1.15883932e-01
      7.38013834e-02 1.71933338e-01 2.49790415e-01 2.12729171e-01
      4.70315032e-02 1.61503881e-01 2.49790415e-01 1.68105215e-01
      1.62223816e-01 1.60841390e-01 2.49790415e-01 2.49790415e-01
      1.23630933e-01 2.31923051e-02 1.18762076e-01 1.67967111e-01
      1.29038632e-01 7.27702230e-02 7.53699914e-02 1.49370879e-01
      1.46636650e-01 1.23459518e-01 2.00600196e-02 1.82168350e-01
      2.49790415e-01 2.29631409e-01 1.42528385e-01 1.57121867e-01
      2.13354781e-01 1.99790552e-01 8.63258392e-02 1.13486061e-02
      9.94722024e-02 2.49790415e-01 2.29974449e-01 3.00421119e-01
      3.00421119e-01 3.00421119e-01 2.99344361e-01 7.11056292e-02
      3.07981744e-02 1.24013945e-01 8.83887932e-02 5.19836554e-04
      2.16836180e-03 1.13709718e-02 2.48122378e-03 3.51796742e-03 0. 0.
      0. 1.58194845e-04 3.00421119e-01 2.95267671e-01 3.00421119e-01
      3.00421119e-01 3.00421119e-01 4.19316664e-02 1.29459323e-02
      1.02056004e-01 3.00421119e-01 1.30599476e-02 1.26762912e-02
      5.53144701e-02 8.43447633e-03 1.02833593e-02 0. 0. 0.
      6.18874654e-03 4.03482979e-03 0. 0. 0. 0. 0. 0. 5.13071828e-02
      5.21182604e-02 2.17098892e-01 1.23415003e-02 3.82624492e-02
      7.90125430e-02 7.47104064e-02 7.15080425e-02 1.05575509e-02
      6.78991497e-01 6.78991497e-01 0. 0. 0. 0. 0. 0. 0. 0. 0. 0. 0. 0.
      0. 0. 0. 0. 0. 0. 2.02896401e-01 4.14504632e-02 8.07449147e-02
      1.38429120e-01 6.03697859e-02 3.14414874e-02 4.00608638e-03
      2.43965119e-01 4.25111383e-01 4.25111383e-01 1.03279032e-01
      2.93991417e-01 3.57766122e-01 2.56176949e-01 1.31607009e-02
      1.33536209e-03 1.73003063e-01 4.25111383e-01 2.33076338e-04 0. 0.
      0. 0. 0. 0. 0. 2.33076338e-04 4.06004908e-03 0. 0. 0. 0. 0. 0. 0.
      4.06004908e-03 4.44800109e-01 1.91701308e-01 4.44800109e-01
      4.26480919e-01 3.96719009e-01 0. 0. 1.11662030e-01 4.44800109e-01
      3.82027104e-02 2.81466469e-02 1.02081254e-01 1.11147361e-02
      1.18992580e-02 0. 0. 0. 2.02546436e-02 9.41734575e-03 0. 0. 0. 0.
      0. 0. 0. 9.41734575e-03 6.52817369e-04 0. 0. 0. 0. 0. 0. 0.
      6.52817369e-04</_>
    <_>
      3.24803069e-02 3.66183482e-02 3.78202880e-03 9.93063732e-05
      3.98591086e-02 1.67682856e-01 8.40256140e-02 6.14869036e-03
      2.09733890e-03 2.60744452e-01 1.20636024e-01 7.70153943e-03
      6.17339201e-02 2.67160147e-01 2.67160147e-01 8.69450644e-02
      1.99578777e-02 1.10218085e-01 7.01372772e-02 1.37265608e-01
      1.29742339e-01 5.34739792e-02 2.99073253e-02 2.29337826e-01
      2.67160147e-01 1.62708551e-01 2.15402618e-02 2.67160147e-01
      2.67160147e-01 2.67160147e-01 1.66052639e-01 2.44906500e-01
      2.67160147e-01 2.67160147e-01 1.73582017e-01 1.97567090e-01
      1.69640273e-01 3.82059477e-02 5.68031985e-03 1.85207576e-01
      2.72349238e-01 1.16438404e-01 6.17271336e-03 3.47326808e-02
      2.29657099e-01 3.87543961e-02 1.55828102e-03 2.71584876e-02
      2.72349238e-01 2.72349238e-01 7.49052095e-04 3.59380829e-05
      6.82774782e-02 2.13444576e-01 2.72349238e-01 8.95672962e-02
      6.62998259e-02 1.81671232e-01 2.72349238e-01 1.04928240e-01
      1.14058303e-02 6.20386191e-02 2.72349238e-01 8.60056803e-02
      1.24756023e-02 7.51824379e-02 2.72349238e-01 2.64929622e-01
      3.20218578e-02 1.73991174e-02 2.72349238e-01 2.72349238e-01
      6.86613331e-03 1.42221537e-03 4.86266129e-02 3.56949717e-01
      1.55851126e-01 0. 1.72653818e-04 7.56007656e-02 1.10605441e-01
      1.09302433e-04 2.39302972e-04 1.03272935e-02 5.37897684e-02
      5.01607545e-03 0. 5.75512677e-05 2.37496872e-03 2.24098354e-03
      3.60890552e-02 1.22017570e-01 3.56949717e-01 3.56949717e-01
      2.41639316e-01 1.01763085e-01 8.89639407e-02 3.56949717e-01
      3.56949717e-01 7.60247651e-03 1.02538995e-01 2.46983305e-01
      3.56949717e-01 2.44093984e-02 2.19155960e-02 3.42162065e-02
      1.25096589e-01 4.41299342e-02 2.33988035e-02 7.04037547e-02
      1.58186585e-01 9.24494267e-02 3.84294381e-03 6.10502437e-02
      2.52446234e-01 2.52446234e-01 7.46030807e-02 1.39292449e-01
      1.71823218e-01 2.52446234e-01 2.52446234e-01 1.43793628e-01
      1.43392920e-01 2.52446234e-01 2.52446234e-01 2.05767736e-01
      3.91042419e-02 8.46337341e-03 3.54247689e-02 4.61065620e-02
      4.40626265e-03 4.47349623e-02 1.05538405e-01 1.59635574e-01
      1.07286729e-01 2.52446234e-01 2.19565723e-02 1.30952135e-01
      2.51832604e-01 2.36594304e-01 1.71054333e-01 1.53165326e-01
      2.48752698e-01 2.52446234e-01 7.81269893e-02 3.41198817e-02
      8.84041861e-02 8.87454152e-02 2.70891845e-01 8.92980844e-02
      1.08613083e-02 4.15705778e-02 1.56917021e-01 9.68123600e-02
      8.57368112e-02 5.23101725e-02 1.51734054e-01 2.83144325e-01
      2.21047804e-01 4.96390983e-02 1.49435595e-01 2.18853027e-01
      2.02995136e-01 7.94171728e-03 4.36280780e-02 8.68641511e-02
      2.83144325e-01 1.44668370e-01 1.95189361e-02 4.15336750e-02
      2.83144325e-01 2.74372280e-01 1.14925906e-01 7.96685591e-02
      2.26786494e-01 2.83144325e-01 2.74599344e-01 5.29984459e-02
      5.71034327e-02 2.83144325e-01 1.43450990e-01 2.52506942e-01
      1.79548919e-01 2.52506942e-01 1.85011148e-01 2.51258671e-01
      1.05884202e-01 2.52506942e-01 1.49988651e-01 4.17952724e-02
      1.71297505e-01 1.41671732e-01 1.25156894e-01 2.26287637e-02
      3.99437994e-02 3.45235616e-02 7.03731254e-02 1.67183820e-02
      2.52506942e-01 2.52506942e-01 1.45611137e-01 2.52506942e-01
      2.52506942e-01 2.52506942e-01 8.41582343e-02 1.13145694e-01
      2.52506942e-01 7.92506561e-02 1.78470343e-01 1.16481833e-01
      2.46078432e-01 5.13037294e-02 5.35188764e-02 2.53462028e-02
      4.28519882e-02 5.55103533e-02 1.44416362e-01 0. 2.11408758e-03
      2.61187479e-02 6.94645895e-03 7.00962022e-02 1.86525166e-01
      1.06246956e-01 2.50630707e-01 4.89697784e-01 0. 2.93333326e-02
      2.20065221e-01 3.47203463e-01 2.65906423e-01 2.99459726e-01
      2.23336652e-01 4.89697784e-01 0. 0. 0. 0. 0. 0. 0. 0. 0.
      9.98465403e-05 0. 0. 0. 0. 0. 0. 0. 9.98465403e-05 2.63281614e-01
      2.17370805e-03 9.75430850e-03 2.85408404e-02 1.71897322e-01
      6.83725029e-02 2.65580788e-02 2.64777746e-02 3.55378598e-01
      3.55378598e-01 1.15327761e-01 6.00885972e-02 2.40513653e-01
      3.55378598e-01 3.36934209e-01 2.09012568e-01 1.48261040e-01
      3.55378598e-01 2.06654635e-03 0. 0. 0. 5.06429060e-04
      1.40332454e-03 1.26074990e-02 3.69631569e-03 4.80994442e-03
      2.35421792e-01 5.45286350e-02 1.45164813e-04 9.95299313e-04
      6.11610785e-02 1.34372547e-01 1.54380366e-01 5.22405766e-02
      1.56533256e-01 2.81899303e-01 2.81899303e-01 1.63342416e-01
      2.81899303e-01 2.45175391e-01 2.81899303e-01 1.60983577e-01
      1.83816597e-01 2.81899303e-01 1.93413466e-01 2.59535044e-01
      1.95055589e-01 2.81899303e-01 4.81368341e-02 9.97853801e-02
      4.02232818e-02 6.81171268e-02 1.17513053e-01 2.81899303e-01
      1.56884938e-01 2.33934335e-02 9.87277273e-03 5.55474013e-02
      1.55569389e-01 9.40407887e-02 4.32526134e-02 1.42342508e-01
      1.36689469e-01 1.13408878e-01 3.67818624e-02 1.05063561e-02
      7.42559368e-03 3.80775742e-02 1.18274493e-02 1.07036522e-02
      3.11772041e-02</_>
    <_>
      0. 0. 0. 2.26340599e-05 1.94474368e-03 1.22848814e-02
      2.20095995e-03 7.11011744e-05 0. 2.24117357e-02 7.68637797e-03 0.
      2.48604640e-03 2.09735692e-01 1.97690159e-01 1.58225037e-02
      2.47785659e-03 1.96639840e-02 2.38212626e-02 2.51012966e-02
      1.38356350e-03 6.98618416e-04 3.69068272e-02 1.70433760e-01
      1.55556619e-01 4.57858443e-02 1.69365294e-02 3.91465485e-01
      3.91465485e-01 3.76783088e-02 3.36069390e-02 3.91465485e-01
      3.91465485e-01 3.91465485e-01 1.28628880e-01 2.61031091e-01
      2.14168932e-02 3.32216034e-03 4.85258468e-04 3.10701896e-02
      2.39392594e-01 7.13365376e-02 4.46760189e-03 2.23170267e-03
      2.78312098e-02 1.06157484e-02 1.03269296e-03 1.86202186e-03
      9.64472592e-02 2.19488934e-01 5.94719406e-03 1.73100343e-04
      3.49338888e-03 2.28834022e-02 3.23197335e-01 1.95203796e-01
      1.48157198e-02 1.25999838e-01 3.23197335e-01 3.23197335e-01
      6.97965920e-02 3.69452685e-02 3.23197335e-01 1.84088439e-01
      2.79837884e-02 6.84615672e-02 3.23197335e-01 3.23197335e-01
      2.47412566e-02 2.84825265e-02 2.03857929e-01 3.23197335e-01
      1.80406088e-03 1.69469125e-03 3.14336526e-03 1.42320350e-01
      1.49850115e-01 0. 0. 3.58771929e-03 8.27675313e-03 0.
      8.50755896e-05 5.48658136e-04 8.42837896e-03 4.09262022e-03 0. 0.
      0. 0. 7.42586106e-02 9.70692933e-02 4.01860237e-01 4.01860237e-01
      4.01860237e-01 2.36082487e-02 1.05180852e-01 4.01860237e-01
      4.01860237e-01 3.15723196e-03 3.92092466e-02 2.45174035e-01
      2.32945308e-01 2.53645517e-02 3.60175711e-03 1.60535108e-02
      4.49861474e-02 1.46802021e-02 9.07875150e-02 2.33684927e-02
      1.10017764e-03 5.17946377e-04 6.89708740e-02 1.82382628e-01
      1.35250568e-01 3.99201661e-02 4.27522995e-02 2.90140867e-01
      2.90140867e-01 2.87503600e-02 4.14537415e-02 2.90140867e-01
      2.90140867e-01 2.63487875e-01 9.17938501e-02 2.72100717e-01
      1.93588719e-01 2.71665491e-02 2.86531722e-04 2.10758910e-04
      5.81862964e-02 1.69529304e-01 1.21515803e-01 2.85173673e-02
      8.71933550e-02 2.90140867e-01 6.90065324e-02 7.01344386e-03
      2.92021967e-02 2.90140867e-01 2.69036591e-01 1.10819764e-01
      3.19417715e-02 2.90140867e-01 2.68104941e-01 1.24260359e-01
      1.49401817e-02 1.00049548e-01 2.68104941e-01 1.29467174e-01
      3.98570672e-02 3.13632563e-02 2.68104941e-01 1.19215690e-01
      5.25269881e-02 8.12754408e-02 2.68104941e-01 2.68104941e-01
      6.22735098e-02 6.16637394e-02 1.87778205e-01 2.68104941e-01
      2.34264404e-01 1.65250972e-02 5.34412917e-03 7.43094981e-02
      2.68104941e-01 3.30817662e-02 7.73661304e-03 2.36737058e-02
      2.68104941e-01 1.21420674e-01 7.17086941e-02 6.02684356e-02
      1.88656583e-01 2.68104941e-01 8.75114053e-02 8.95598307e-02
      1.72586888e-01 2.68104941e-01 5.36004305e-02 1.64782166e-01
      2.47273758e-01 2.47273758e-01 2.09957123e-01 1.04312725e-01
      1.19680241e-01 2.47273758e-01 2.47273758e-01 1.10172015e-02
      6.96563721e-02 1.62440911e-01 9.99187231e-02 1.28256790e-02
      1.33222509e-02 1.90333389e-02 2.62097828e-02 9.94159840e-03
      2.05792874e-01 2.47273758e-01 2.47273758e-01 2.47273758e-01
      2.27927789e-01 1.76979616e-01 2.03597978e-01 2.47273758e-01
      2.47273758e-01 1.05323382e-01 1.17795162e-01 2.26442456e-01
      2.26994753e-01 2.59345807e-02 3.36777642e-02 5.15031666e-02
      5.77985942e-02 4.93546017e-02 4.67468500e-01 7.73873478e-02 0. 0.
      2.31600404e-02 2.35060617e-01 2.64389336e-01 6.44703731e-02
      2.87316561e-01 4.67468500e-01 9.88295674e-02 0. 0. 3.07564456e-02
      2.77067035e-01 1.81011960e-01 3.34364697e-02 4.67468500e-01 0. 0.
      0. 0. 0. 0. 0. 0. 0. 0. 0. 0. 0. 0. 0. 0. 0. 0. 3.24082732e-01
      5.21689979e-03 2.12085503e-03 3.04629784e-02 3.17934938e-02
      1.24595575e-02 6.43096725e-03 3.21789160e-02 3.70667160e-01
      3.70667160e-01 1.24564789e-01 6.51874691e-02 2.49011353e-01
      2.48651192e-01 1.97835475e-01 3.70667160e-01 3.70667160e-01
      3.70667160e-01 0. 0. 0. 0. 0. 0. 7.25797319e-04 2.41932416e-04 0.
      1.03412412e-01 4.30174777e-03 0. 0. 3.21318791e-03 1.13404915e-02
      6.32422641e-02 2.57573836e-02 5.32896742e-02 2.96692014e-01
      2.23542675e-01 2.96692014e-01 2.96692014e-01 1.35736153e-01
      1.92419171e-01 2.96692014e-01 2.96692014e-01 2.96692014e-01
      2.96692014e-01 1.54320568e-01 2.96692014e-01 2.83143878e-01
      2.34608818e-02 5.08193858e-02 9.52919945e-02 1.06809519e-01
      1.31145388e-01 1.63575947e-01 1.47138806e-02 1.08651761e-02
      1.35137452e-04 2.41253315e-03 1.03059663e-02 4.41635363e-02
      1.81589518e-02 6.30714372e-02 8.85393918e-02 1.37852114e-02
      1.66810770e-02 1.65167963e-04 3.53057956e-04 2.37481063e-03
      6.97823334e-03 3.93427396e-03 2.75605209e-02</_>
    <_>
      0. 0. 0. 0. 0. 0. 0. 0. 0. 0. 0. 0. 0. 5.15755676e-02
      3.97325382e-02 1.83546823e-03 0. 0. 0. 0. 0. 0. 1.46019254e-02
      9.16710938e-04 6.95084874e-03 2.22594151e-03 0. 3.99968140e-02
      3.04899901e-01 2.76076734e-01 1.37594834e-01 4.93757337e-01
      4.93757337e-01 4.93757337e-01 2.63544619e-01 0. 4.97247092e-04 0.
      3.69190202e-05 7.66704543e-05 7.82132894e-02 2.27260813e-02
      1.67795061e-03 1.30737084e-03 4.97247092e-04 1.45051023e-03 0.
      1.68684020e-03 1.73810832e-02 1.91393197e-01 1.43698370e-02
      1.42069289e-03 1.59789750e-03 1.45051023e-03 1.36222005e-01
      1.88323051e-01 1.25287220e-01 1.31255135e-01 3.37490976e-01
      3.37490976e-01 2.98844248e-01 7.40661472e-02 1.04192100e-01
      2.74341613e-01 1.35901317e-01 1.00045986e-01 3.37490976e-01
      3.37490976e-01 2.65213877e-01 7.40789771e-02 1.05700292e-01
      3.37490976e-01 8.26205767e-04 0. 2.57688854e-03 4.65421341e-02
      1.75570741e-01 1.05920155e-03 3.46611487e-05 3.82841477e-04
      8.26205767e-04 0. 0. 9.18138758e-05 1.22492695e-02 1.80362444e-02
      0. 0. 0. 0. 2.21246257e-01 1.45179361e-01 2.88335711e-01
      3.84031266e-01 3.84031266e-01 1.88538909e-01 9.54127163e-02
      2.36706644e-01 3.84031266e-01 6.21263422e-02 1.13498807e-01
      2.48258501e-01 3.84031266e-01 1.59525275e-01 4.05532308e-02
      4.12994325e-02 6.83352649e-02 8.41448903e-02 1.27873262e-02 0. 0.
      1.32452101e-02 8.36492032e-02 5.50988838e-02 5.15977591e-02
      2.86382008e-02 3.65903825e-02 1.08908929e-01 6.25956953e-02
      7.95139298e-02 1.09143294e-01 3.12312692e-01 3.12312692e-01
      3.12312692e-01 1.49341106e-01 1.84743479e-01 6.64384589e-02 0. 0.
      2.18162425e-02 1.09250873e-01 8.90585259e-02 1.09429970e-01
      8.12168270e-02 1.58416614e-01 3.12312692e-01 1.01140775e-02
      2.24472657e-02 1.11127183e-01 3.12312692e-01 3.12312692e-01
      3.12312692e-01 1.71888322e-01 3.12312692e-01 9.94321778e-02
      1.12673171e-01 1.01920195e-01 1.78778678e-01 2.23074555e-01
      2.09297433e-01 2.47658044e-01 6.33956343e-02 1.18171401e-01
      2.25847676e-01 1.50978595e-01 7.63397515e-02 2.47658044e-01
      2.47658044e-01 1.66702583e-01 5.65793812e-02 5.15797138e-02
      2.47658044e-01 2.13018194e-01 5.24048135e-02 6.10624440e-02
      1.40845895e-01 1.45853430e-01 9.69115049e-02 1.25341699e-01
      4.77398187e-02 2.47658044e-01 2.47658044e-01 1.32969856e-01
      9.06506106e-02 2.47658044e-01 2.45641291e-01 8.03096890e-02
      2.73380857e-02 5.75004146e-02 2.47658044e-01 2.68976718e-01
      2.54504710e-01 1.61146596e-01 2.68976718e-01 2.68976718e-01
      2.38423660e-01 9.88913476e-02 1.26339927e-01 2.68976718e-01
      1.20208032e-01 1.43967420e-01 1.51795000e-01 1.73233017e-01
      5.08542545e-02 4.48131412e-02 3.88544276e-02 3.68722007e-02
      5.46108633e-02 2.68976718e-01 2.16332704e-01 1.57608896e-01
      2.68976718e-01 2.68976718e-01 1.30726635e-01 4.34301682e-02
      9.51023325e-02 2.68976718e-01 1.14913248e-01 9.52027738e-02
      9.63808373e-02 9.67820659e-02 3.99130769e-02 2.00000163e-02
      1.39634404e-02 1.52093526e-02 5.93112111e-02 1.54831633e-01 0. 0.
      2.12230794e-02 8.27932954e-02 8.52352232e-02 1.37997851e-01
      1.25425398e-01 3.34015399e-01 5.02041101e-01 0. 0. 8.09810162e-02
      3.72004360e-01 3.00855458e-01 1.84255362e-01 1.91315949e-01
      5.02041101e-01 0. 0. 0. 0. 0. 0. 0. 0. 0. 1.87324797e-04 0. 0. 0.
      0. 0. 0. 0. 1.87324797e-04 4.16038722e-01 3.48676667e-02
      4.38591763e-02 6.30185455e-02 8.86789113e-02 5.87062724e-02
      1.97172016e-02 4.01767939e-02 4.16038722e-01 4.16038722e-01
      9.07537341e-02 1.45096168e-01 4.16038722e-01 2.34666601e-01
      1.53505313e-03 2.04218412e-03 1.49733156e-01 4.16038722e-01
      3.10640107e-03 0. 0. 0. 0. 0. 0. 0. 3.77684319e-03 2.29068566e-02
      1.04117964e-03 2.04946822e-03 0. 0. 0. 0. 3.15822475e-03
      5.12914993e-02 3.93549174e-01 1.26876697e-01 3.89984608e-01
      3.93549174e-01 3.54740590e-01 0. 0. 2.31042221e-01 3.93549174e-01
      1.35654271e-01 7.07110092e-02 2.32675344e-01 1.97145596e-01
      6.55028522e-02 0. 0. 3.56234163e-02 2.08267540e-01 5.98872490e-02
      8.47468618e-03 1.59968734e-02 0. 0. 0. 0. 8.23625643e-03
      1.13739088e-01 2.45929994e-02 6.91060303e-03 1.25134196e-02 0. 0.
      0. 0. 1.87327166e-03 3.07552628e-02</_>
    <_>
      0. 0. 0. 0. 5.50387464e-02 4.16405965e-03 4.62634116e-03
      5.56901447e-04 0. 0. 0. 0. 0. 1.88513786e-01 3.58530297e-03
      2.65854201e-03 2.75104103e-04 0. 9.42991003e-02 0. 0. 0.
      4.44924414e-01 7.91172162e-02 1.23269401e-01 1.71717793e-01
      2.00322285e-01 4.44924414e-01 5.90920774e-03 4.91252076e-03
      6.08240429e-04 4.44924414e-01 9.37960520e-02 1.13483861e-01
      2.08326921e-01 4.44924414e-01 0. 0. 0. 4.11730471e-05
      1.25266463e-01 4.58371796e-05 0. 0. 0. 0. 0. 0. 4.90430929e-03
      1.23293273e-01 0. 0. 0. 0. 3.32218468e-01 2.26739813e-02
      1.92367919e-02 2.82180193e-03 4.65884894e-01 5.43875210e-02
      7.08977431e-02 1.03064932e-01 3.20418507e-01 4.38320369e-01
      2.07607113e-02 1.73396990e-02 9.49105397e-02 4.65884894e-01
      2.88166422e-02 3.61172110e-02 7.26469085e-02 2.97521561e-01 0.
      3.56606724e-05 1.06982028e-04 8.91428813e-03 9.86842588e-02 0. 0.
      0. 0. 0. 1.06982014e-04 3.20946070e-04 3.15686734e-03
      3.12469807e-02 0. 0. 0. 0. 4.16862965e-01 4.84820493e-02
      1.51720867e-01 2.65863746e-01 4.16862965e-01 2.51773968e-02
      3.40905152e-02 3.09087336e-02 3.96943599e-01 1.25842586e-01
      1.00013472e-01 3.40956897e-01 2.02017590e-01 4.16862965e-01
      3.07723656e-02 3.08031105e-02 2.87763234e-02 1.47351891e-01
      1.48470521e-01 0. 0. 0. 2.93412268e-01 5.75775243e-02
      1.02368638e-01 1.82642400e-01 2.89014518e-01 3.89051467e-01
      2.13001370e-02 2.59781890e-02 1.35569442e-02 3.89051467e-01
      1.17567711e-01 2.28092998e-01 3.54052901e-01 3.89051467e-01
      2.61725914e-02 0. 0. 0. 0. 0. 2.02100282e-03 9.20747500e-03
      4.31247465e-02 1.17329486e-01 1.14693046e-02 2.07666997e-02
      1.52480835e-02 5.78985317e-03 2.63701007e-02 1.12691984e-01
      1.87009588e-01 2.12375075e-01 2.65375644e-01 3.69829461e-02
      4.89283577e-02 8.83732215e-02 2.69182116e-01 6.44411966e-02
      1.11908913e-01 1.84028491e-01 2.69182116e-01 2.69182116e-01
      3.96562740e-02 4.94392551e-02 1.82613313e-01 2.69182116e-01
      7.55727664e-02 5.61047643e-02 1.31934240e-01 2.69182116e-01
      7.64183402e-02 1.99079383e-02 4.34951857e-02 1.39356643e-01
      2.73237824e-02 2.48813815e-02 6.92541003e-02 2.18240231e-01
      2.20188230e-01 2.69182116e-01 4.68773134e-02 5.71022741e-02
      2.69182116e-01 1.73275068e-01 1.09902218e-01 3.95893306e-02
      2.06202418e-01 2.69182116e-01 2.65435785e-01 1.31892234e-01
      1.27936721e-01 1.35766402e-01 2.65435785e-01 1.65788218e-01
      8.55492353e-02 4.34922129e-02 2.65435785e-01 1.32529661e-01
      2.14820281e-01 2.65435785e-01 8.01664516e-02 2.24688441e-01
      1.12580173e-01 7.31380060e-02 3.56625058e-02 1.34965986e-01
      2.65435785e-01 2.26896286e-01 6.63123503e-02 1.00685522e-01
      1.92114592e-01 2.65435785e-01 7.91341737e-02 5.17035536e-02
      2.62290746e-01 1.80918455e-01 2.65435785e-01 1.18798278e-01
      4.08884278e-03 3.61335613e-02 1.41480714e-01 6.23295456e-02
      1.79554988e-02 6.38765246e-02 0. 0. 0. 0. 0. 0. 0. 0. 0.
      2.28649136e-02 0. 8.61153007e-03 6.10701814e-02 0. 0.
      1.37104377e-01 8.55807602e-01 4.85725641e-01 0. 0. 0. 0. 0. 0. 0.
      0. 0. 0. 0. 0. 0. 0. 0. 0. 0. 0. 5.37234917e-02 0. 1.40763875e-02
      1.85643107e-01 2.73864456e-02 0. 1.85481440e-02 3.32640558e-01
      3.78888726e-01 3.78888726e-01 8.63362327e-02 5.70179969e-02
      3.78888726e-01 2.92018920e-01 1.80095911e-01 2.57328264e-02
      3.78888726e-01 3.78888726e-01 4.80606919e-04 0. 0. 0. 0. 0. 0. 0.
      4.80606919e-04 5.59902703e-03 0. 0. 0. 0. 0. 0. 0. 5.59902703e-03
      3.75414938e-01 3.75414938e-01 5.48291244e-02 1.66003078e-01
      2.99826354e-01 3.75414938e-01 4.13460694e-02 9.78188589e-02
      3.75414938e-01 3.75414938e-01 3.57462645e-01 3.88303325e-02
      1.65392004e-03 4.60167266e-02 1.44667745e-01 2.17751488e-02
      3.61492950e-03 8.34167004e-02 4.91447933e-03 0. 0. 0. 0. 0. 0. 0.
      4.91447933e-03 3.04409419e-04 0. 0. 0. 0. 0. 0. 0. 3.04409419e-04</_>
    <_>
      0. 3.19739175e-03 4.60841805e-02 8.28935951e-02 1.10634647e-01
      2.49599162e-02 8.17606673e-02 1.55516639e-02 0. 0. 2.65435292e-03
      2.82490216e-02 5.48307821e-02 8.38568956e-02 6.29301649e-03
      1.34624774e-02 2.62049050e-03 0. 7.45097399e-02 9.59217548e-03
      1.65735513e-01 3.50655288e-01 3.50655288e-01 6.01119287e-02
      3.50655288e-01 3.50655288e-01 1.64125532e-01 2.11987764e-01
      7.96305854e-03 9.98633578e-02 3.50655288e-01 3.50655288e-01
      1.62729640e-02 1.07653804e-01 1.08389907e-01 2.76831150e-01 0.
      2.44139483e-05 7.32418484e-05 5.65983076e-03 4.55048643e-02 0. 0.
      0. 0. 0. 0. 0. 8.33179729e-05 7.47026410e-03 0. 0. 0. 0.
      2.25358501e-01 4.85383859e-03 2.67006783e-03 4.57000017e-01
      4.57000017e-01 0. 2.24589705e-02 5.80408648e-02 2.50847220e-01
      1.46792799e-01 1.66813675e-02 2.00482528e-03 4.57000017e-01
      4.57000017e-01 0. 1.45981656e-02 4.09862101e-02 1.28617883e-01 0.
      0. 0. 0. 0. 0. 0. 0. 0. 0. 0. 0. 0. 0. 0. 0. 0. 0. 2.09486067e-01
      6.83967844e-02 6.63769320e-02 4.15161014e-01 5.25534868e-01 0.
      1.32279089e-02 3.64713706e-02 2.04317153e-01 1.10210054e-01
      7.97920898e-02 2.02278495e-01 3.24183166e-01 5.25534868e-01 0.
      2.33433652e-03 3.96961672e-03 9.62006524e-02 1.68813989e-01
      2.16069492e-03 4.41025905e-02 1.53462321e-01 2.19655663e-01
      1.17584448e-02 2.58606255e-01 2.89936662e-01 2.89936662e-01
      2.89936662e-01 2.43301094e-02 3.54547836e-02 2.56073028e-01
      2.89936662e-01 3.83697860e-02 1.43678978e-01 1.39831737e-01
      2.89936662e-01 8.93666819e-02 0. 0. 2.34571533e-04 4.77468176e-03
      0. 2.14327965e-02 5.05513512e-02 1.80681452e-01 2.56171882e-01
      4.61125523e-02 5.52633628e-02 4.91287597e-02 2.89077200e-02
      6.15697838e-02 2.21556365e-01 2.09206998e-01 2.89936662e-01
      2.40777165e-01 6.17235750e-02 2.00432483e-02 1.81462184e-01
      2.40777165e-01 4.31993417e-02 9.25033391e-02 7.31865689e-02
      2.22987369e-01 2.40777165e-01 7.96006396e-02 2.61140168e-02
      1.95173636e-01 2.40777165e-01 1.86320487e-02 5.95864728e-02
      9.97922346e-02 1.89062387e-01 2.03124717e-01 1.14853993e-01
      1.23259343e-01 1.38646916e-01 8.48610550e-02 8.94204304e-02
      1.97758734e-01 2.34514683e-01 1.88912928e-01 2.40777165e-01
      2.06050232e-01 1.24072663e-01 1.37806565e-01 2.40777165e-01
      2.03509703e-01 1.23155683e-01 1.79105699e-01 2.30294585e-01
      2.43374810e-01 1.32408082e-01 1.05769373e-01 1.72549307e-01
      2.65024841e-01 1.02712698e-02 5.44118807e-02 1.05957195e-01
      2.65024841e-01 1.50371641e-01 9.95876715e-02 1.60148785e-01
      1.49963275e-01 2.65024841e-01 1.82651670e-03 5.98290423e-03
      8.24589375e-03 1.34169713e-01 2.65024841e-01 2.65024841e-01
      2.20772907e-01 8.85339305e-02 2.65024841e-01 2.36476287e-01
      1.44164845e-01 1.54976383e-01 2.65024841e-01 1.70465365e-01
      1.62602261e-01 1.76268324e-01 6.66164979e-02 8.63449872e-02
      1.80915333e-02 1.77552123e-02 1.36837987e-02 1.35279611e-01 0. 0.
      0. 0. 0. 0. 0. 0. 0. 3.37306969e-02 1.07345246e-01 2.82067388e-01
      3.97417516e-01 3.20660812e-03 1.21203251e-01 4.68961805e-01
      4.68961805e-01 4.52197760e-01 0. 0. 0. 0. 0. 0. 0. 0. 0.
      1.12729361e-02 0. 4.84105665e-03 2.97627226e-02 0. 0.
      2.93838903e-02 2.36483008e-01 1.68210894e-01 1.36337608e-01
      6.45538345e-02 1.50517866e-01 2.73231924e-01 1.45244420e-01
      7.57114813e-02 1.59475878e-01 2.73231924e-01 2.73231924e-01
      2.73231924e-01 2.73231924e-01 1.49516031e-01 2.41866902e-01
      2.73231924e-01 2.73231924e-01 8.80591646e-02 2.27339759e-01
      2.73231924e-01 7.13699013e-02 3.23630357e-03 3.12299049e-03
      2.83133779e-02 2.94443164e-02 6.55844621e-03 6.26916066e-03
      8.66687819e-02 1.61715761e-01 2.61844277e-01 7.12668672e-02
      5.77387400e-03 2.66340449e-02 6.35316595e-02 4.20541726e-02
      1.36545615e-03 4.26897295e-02 1.98792979e-01 3.80945265e-01
      3.80945265e-01 2.90874243e-01 5.35909198e-02 3.28607976e-01
      3.80945265e-01 1.83809936e-01 9.86855775e-02 2.55940378e-01
      1.19127430e-01 2.52251625e-01 1.39398873e-01 8.60428717e-03
      8.93693045e-03 4.06289361e-02 2.39502676e-02 1.01649109e-02
      4.20237742e-02 3.29617918e-01 1.79872707e-01 1.14391986e-02
      4.30048676e-03 4.39098440e-02 5.76216765e-02 0. 0. 8.88233483e-02
      9.42103099e-03 2.13731769e-02 2.35145725e-03 0. 9.67405649e-05
      4.86948091e-04 0. 0. 6.17991667e-04</_>
    <_>
      0. 0. 0. 1.20846450e-03 6.90623969e-02 5.13066817e-03
      6.80286763e-03 4.47199796e-04 0. 0. 0. 0. 1.16824619e-02
      1.78669974e-01 4.57403809e-03 3.49515444e-03 1.49066604e-04 0.
      1.10898368e-01 0. 0. 2.29608491e-02 4.37438011e-01 9.74828005e-02
      1.58237129e-01 1.31049797e-01 2.82357335e-01 3.81064206e-01 0. 0.
      2.21967027e-01 4.37438011e-01 8.75648782e-02 8.68721381e-02
      1.75148562e-01 4.37438011e-01 0. 0. 0. 6.19048253e-03
      9.50037092e-02 1.35394174e-03 0. 0. 0. 0. 0. 0. 3.01810936e-03
      9.14637446e-02 9.24597320e-04 0. 0. 0. 2.68134743e-01
      1.03710908e-02 6.22285903e-03 1.17660455e-01 4.57643896e-01
      5.57725243e-02 3.28856148e-02 4.33131941e-02 4.57643896e-01
      3.13853264e-01 3.97205055e-02 1.08819101e-02 1.19331442e-01
      4.57643896e-01 6.97388500e-02 5.64805381e-02 1.34681880e-01
      3.42178643e-01 0. 0. 0. 4.70943563e-03 7.10296035e-02
      2.15581495e-05 0. 0. 0. 0. 0. 0. 1.75736076e-03 1.39721222e-02 0.
      0. 0. 0. 3.71242493e-01 5.16217835e-02 6.25451058e-02
      4.08141375e-01 4.08141375e-01 3.05514839e-02 5.53968586e-02
      1.34623781e-01 2.89283484e-01 1.19042389e-01 8.75359476e-02
      1.87480912e-01 4.08141375e-01 4.08141375e-01 1.96263697e-02
      4.63677645e-02 2.85773613e-02 1.17458895e-01 1.69645950e-01 0. 0.
      1.73273589e-02 3.07353765e-01 7.35651925e-02 1.30170330e-01
      1.44382551e-01 3.77734482e-01 4.09287900e-01 0. 0. 1.67506963e-01
      4.09287900e-01 6.80437908e-02 1.57037273e-01 2.30414897e-01
      4.09287900e-01 2.61508040e-02 0. 0. 0. 0. 0. 1.71729433e-03
      7.26160500e-03 4.27597761e-02 1.13417938e-01 0. 0. 0.
      2.13612546e-03 1.32448168e-03 1.25229120e-01 7.85981864e-02
      1.90240234e-01 1.94937736e-01 4.54727039e-02 3.09328511e-02
      5.46605326e-02 2.57703394e-01 5.89580573e-02 1.24581933e-01
      7.64685199e-02 2.57703394e-01 2.57703394e-01 1.31132990e-01
      5.83789758e-02 1.03759862e-01 2.57703394e-01 1.25651151e-01
      1.36379406e-01 1.58822015e-01 2.57703394e-01 5.65773956e-02
      4.73148711e-02 4.73542102e-02 7.17534497e-02 3.94141749e-02
      3.44013348e-02 1.58290610e-01 1.80439755e-01 1.64035276e-01
      2.57703394e-01 1.88958466e-01 9.39400867e-02 2.48831376e-01
      2.22051829e-01 1.63723692e-01 1.54474109e-01 2.57287115e-01
      2.57703394e-01 2.56570667e-01 1.50596678e-01 6.24287799e-02
      2.20821917e-01 2.56570667e-01 1.74839869e-01 9.18469280e-02
      1.07760936e-01 2.35969663e-01 1.71359554e-01 2.21415102e-01
      1.66315675e-01 2.35976517e-01 1.64806634e-01 1.13772392e-01
      8.22022259e-02 3.53285708e-02 1.07171685e-01 2.56570667e-01
      2.56570667e-01 4.84446958e-02 1.25625953e-01 1.73631623e-01
      2.56570667e-01 9.14424434e-02 7.72570744e-02 1.98678091e-01
      2.29459286e-01 2.56570667e-01 7.92744160e-02 3.37397158e-02
      1.96843166e-02 1.68960258e-01 7.41455480e-02 2.05953754e-02
      4.98487577e-02 0. 0. 0. 0. 0. 0. 0. 0. 0. 0. 0. 0. 0. 0. 0.
      7.82988966e-01 6.13905489e-01 1.74927525e-02 0. 0. 0. 0. 0. 0. 0.
      0. 0. 0. 0. 0. 0. 0. 0. 0. 0. 0. 3.74125130e-02 1.99035592e-02
      3.92100662e-02 1.17478512e-01 2.38388535e-02 0. 1.23235136e-01
      3.33640844e-01 3.42919767e-01 3.48972619e-01 2.53892124e-01
      8.65234286e-02 3.48972619e-01 3.48972619e-01 1.74268141e-01
      1.27417520e-01 3.48972619e-01 3.48972619e-01 3.75265162e-03 0. 0.
      0. 0. 0. 0. 9.83101083e-04 1.05631724e-02 5.48964031e-02
      2.68067420e-03 0. 0. 0. 0. 0. 3.54917278e-03 6.39683604e-02
      3.57251972e-01 3.57251972e-01 4.53777947e-02 2.42476612e-01
      3.36982369e-01 3.57251972e-01 6.86588064e-02 1.29265741e-01
      3.57251972e-01 3.57251972e-01 3.57251972e-01 1.66903175e-02
      2.75122677e-03 1.73083413e-02 1.65147200e-01 3.52999829e-02 0.
      1.51694873e-02 5.81264570e-02 4.68571531e-03 0. 0. 0. 0. 0.
      1.56058476e-03 4.53943536e-02 4.55723517e-03 8.08810175e-04 0. 0.
      0. 0. 0. 0. 1.25211815e-03</_>
    <_>
      0. 0. 0. 0. 0. 0. 0. 0. 0. 0. 0. 0. 0. 6.30793744e-04 0. 0. 0. 0.
      1.57960385e-01 1.94629421e-03 0. 0. 4.58913624e-01 1.53426543e-01
      1.89791173e-01 5.03090695e-02 1.35920405e-01 4.27922189e-01
      9.14100558e-02 1.42461120e-03 1.37663297e-02 4.58913624e-01
      3.95967752e-01 1.67998046e-01 1.13639578e-01 2.81245172e-01 0. 0.
      0. 0. 5.23311226e-03 0. 0. 0. 0. 0. 0. 0. 0. 1.40334088e-02 0. 0.
      0. 0. 2.90146351e-01 1.50217354e-01 2.55705160e-03 3.13230678e-02
      5.58354318e-01 2.92280138e-01 9.18462053e-02 9.61147845e-02
      1.42678320e-01 1.97468460e-01 1.25705913e-01 4.34996188e-03
      1.25220463e-01 5.58354318e-01 1.35056913e-01 1.36250690e-01
      1.14293315e-01 1.38282895e-01 0. 0. 0. 0. 1.23377955e-02 0. 0. 0.
      0. 0. 0. 0. 0. 1.32649229e-03 0. 0. 0. 0. 9.23678726e-02
      3.15430105e-01 1.11373805e-01 4.70781714e-01 4.99406725e-01
      4.07763961e-04 7.83886462e-02 5.67744114e-02 4.94293682e-02
      4.59721126e-02 2.66265780e-01 1.49063468e-01 2.52251923e-01
      4.82400477e-01 0. 0. 0. 0. 1.93033218e-01 1.52165059e-03 0. 0.
      2.91576415e-01 8.79042000e-02 1.51464254e-01 5.01374528e-02
      1.68104470e-01 2.91576415e-01 1.01730973e-01 3.63049991e-02
      6.43903241e-02 2.91576415e-01 2.18387738e-01 2.53386021e-01
      2.77409345e-01 2.91576415e-01 1.13300197e-01 5.07216842e-04 0. 0.
      4.77811657e-02 1.90801080e-02 5.33473082e-02 2.38601770e-02
      1.00210935e-01 2.66406387e-01 5.78665100e-02 4.71594967e-02
      1.07072778e-01 1.37008294e-01 4.49262075e-02 2.14177683e-01
      2.91576415e-01 2.91576415e-01 2.13241860e-01 1.24260031e-01
      4.45404612e-02 9.34079736e-02 2.61848032e-01 1.36465102e-01
      1.37250274e-01 1.72755122e-01 1.26884684e-01 2.06985295e-01
      1.83735222e-01 2.27042213e-02 8.61997157e-02 2.61848032e-01
      1.17825910e-01 1.88532516e-01 1.16730601e-01 9.60434973e-02
      2.14872077e-01 7.96155035e-02 5.78956865e-02 1.61442086e-01
      1.29069328e-01 9.08065736e-02 1.37242615e-01 2.61848032e-01
      2.61848032e-01 2.61848032e-01 2.58600891e-01 2.87787952e-02
      9.69162509e-02 1.53697103e-01 1.61443934e-01 1.74734771e-01
      1.28037795e-01 2.08176509e-01 2.97426164e-01 3.44565839e-01
      8.87766033e-02 2.38135695e-01 3.44565839e-01 4.14041542e-02
      1.55157864e-01 7.61538818e-02 4.54525165e-02 1.03761427e-01
      3.44565839e-01 1.07737482e-01 1.30455881e-01 2.02595651e-01 0. 0.
      0. 2.67965806e-05 3.44565839e-01 3.44565839e-01 4.28472459e-02
      4.07063290e-02 1.27045020e-01 8.49853978e-02 1.39642939e-01
      5.21692820e-02 6.89190552e-02 1.04181945e-01 2.61643946e-01
      3.93510312e-02 2.30405368e-02 2.38209572e-02 0. 0. 0.
      5.09135483e-04 0. 0. 0. 0. 0. 0. 2.80409539e-03 9.34698444e-04 0.
      1.18964031e-01 5.21044094e-05 1.14946149e-01 3.85702044e-01
      4.34467159e-02 0. 3.68597895e-01 5.83193839e-01 5.83193839e-01 0.
      0. 0. 0. 0. 0. 0. 0. 0. 5.23188803e-03 0. 0. 0. 0. 0. 0. 0.
      5.23188803e-03 3.79701197e-01 1.77343618e-02 4.49898578e-02
      1.93253800e-01 1.09589338e-01 9.30013359e-02 8.09341744e-02
      3.79701197e-01 3.79701197e-01 3.79701197e-01 3.25089425e-01
      2.27654688e-02 1.13806136e-01 1.42966419e-01 1.96201146e-01
      8.74304175e-02 1.49500921e-01 3.79701197e-01 7.86951464e-03 0. 0.
      0. 0. 0. 0. 0. 7.86951464e-03 1.09690772e-02 0. 0. 0. 0. 0. 0. 0.
      1.09690772e-02 6.19968474e-01 6.19968474e-01 2.93273497e-02 0.
      8.00654218e-02 1.78366229e-01 1.07881881e-01 2.32170299e-02
      3.47209722e-01 1.10656627e-01 2.01965302e-01 1.07682431e-02 0. 0.
      0. 0. 0. 3.07254051e-03 7.43911322e-03 0. 0. 0. 0. 0. 0. 0.
      7.43911322e-03 0. 0. 0. 0. 0. 0. 0. 0. 0.</_>
    <_>
      0. 0. 0. 0. 0. 0. 0. 0. 0. 0. 0. 0. 0. 0. 0. 0. 0. 0.
      4.83034588e-02 0. 0. 0. 2.68581927e-01 9.38057825e-02
      1.16485573e-01 8.52539688e-02 7.77504668e-02 4.45714146e-01 0. 0.
      0. 4.82292145e-01 4.16405350e-01 1.65588707e-01 1.42639697e-01
      4.82292145e-01 0. 0. 0. 0. 0. 0. 0. 0. 0. 0. 0. 0. 0. 0. 0. 0. 0.
      0. 3.03256750e-01 7.21157901e-03 0. 0. 5.83217561e-01
      1.56236440e-01 4.48248982e-02 5.11758849e-02 3.00508082e-01
      2.29387194e-01 8.09518248e-02 3.21818180e-02 3.78429033e-02
      5.83217561e-01 3.77938263e-02 4.76126000e-02 8.42551887e-02
      1.73486218e-01 0. 0. 0. 0. 0. 0. 0. 0. 0. 0. 0. 0. 0. 0. 0. 0. 0.
      0. 2.39105374e-01 3.67558420e-01 3.05157840e-01 2.47911692e-01
      5.85948527e-01 2.26250407e-03 1.71761923e-02 8.42312649e-02
      1.09310508e-01 6.10717312e-02 1.92074642e-01 2.35451743e-01
      1.35008231e-01 4.12696958e-01 0. 0. 3.17007187e-03 1.25044305e-03
      5.80294728e-02 0. 0. 0. 1.28833368e-01 5.04357517e-02
      9.08380225e-02 6.75170347e-02 9.32653770e-02 3.22276860e-01
      2.73050368e-02 1.61891356e-02 2.50839489e-03 3.22276860e-01
      3.22276860e-01 2.30623990e-01 1.65480852e-01 3.22276860e-01
      3.19621861e-02 0. 0. 0. 1.88141558e-02 8.90042540e-03
      2.94517931e-02 2.22298298e-02 5.09353653e-02 3.07385087e-01
      5.43854162e-02 4.85674106e-02 1.42142400e-02 1.90784112e-01
      2.46348262e-01 2.82939404e-01 2.63266146e-01 3.22276860e-01
      2.46481657e-01 5.89072518e-02 1.50989229e-02 3.18801473e-03
      2.68706471e-01 1.80620670e-01 7.48140141e-02 5.32762185e-02
      1.95873037e-01 2.68706471e-01 1.71301693e-01 2.77541112e-02
      1.43159227e-02 2.68706471e-01 1.57126158e-01 7.19312727e-02
      6.84460998e-02 1.34284496e-01 2.68706471e-01 1.06111825e-01
      4.85935546e-02 1.80654209e-02 1.65712655e-01 2.19946489e-01
      1.20494276e-01 1.16285935e-01 2.47878015e-01 2.68706471e-01
      2.68706471e-01 4.65441942e-02 1.68126766e-02 1.98666126e-01
      2.68706471e-01 8.82016197e-02 5.99975809e-02 1.80389613e-01
      3.51883531e-01 3.51883531e-01 1.99717447e-01 1.06586479e-01
      3.51883531e-01 1.32573828e-01 6.98897690e-02 9.86159965e-02
      1.34782568e-01 8.26643407e-02 2.17625841e-01 1.40640512e-01
      5.76620474e-02 1.54358789e-01 1.06856111e-03 1.06698461e-03
      3.87622067e-03 1.52633572e-03 3.51883531e-01 3.51883531e-01
      1.00150362e-01 2.26708110e-02 2.02747405e-01 2.41306126e-01
      9.11202207e-02 6.88190758e-02 1.28316402e-01 6.75993040e-02
      1.66042909e-01 4.93734777e-02 1.01756537e-02 2.34661810e-02
      1.30601868e-03 1.30409212e-03 2.81939609e-03 1.64326478e-03 0. 0.
      0. 0. 0. 0. 0. 0. 0. 3.40163946e-01 1.25056148e-01 1.49507880e-01
      6.52770475e-02 1.22265458e-01 3.15306187e-01 4.90748018e-01
      4.90748018e-01 4.90748018e-01 0. 0. 0. 0. 0. 0. 0. 0. 0.
      1.15443412e-02 0. 0. 0. 0. 0. 0. 0. 1.15443412e-02 3.50540459e-01
      1.56426430e-01 9.35734585e-02 4.84605841e-02 1.48638472e-01
      2.38604352e-01 1.68674588e-01 2.64162332e-01 3.50540459e-01
      3.50540459e-01 3.50540459e-01 8.19070116e-02 3.95549908e-02
      1.63102567e-01 3.50540459e-01 9.02535915e-02 5.49435690e-02
      3.50540459e-01 9.95314587e-03 0. 0. 0. 0. 0. 0. 0. 9.95314587e-03
      8.82491469e-03 0. 0. 0. 0. 0. 0. 0. 8.82491469e-03 5.57022452e-01
      5.57022452e-01 1.08278029e-01 1.75159872e-02 1.05074503e-01
      5.03729939e-01 1.46655545e-01 2.18564717e-04 2.41164938e-01
      4.27283309e-02 1.23787425e-01 1.45345181e-02 0. 0. 1.72878825e-03
      1.72623794e-03 0. 3.11217667e-03 3.86567530e-03 0. 0. 0. 0. 0. 0.
      0. 3.86567530e-03 0. 0. 0. 0. 0. 0. 0. 0. 0.</_>
    <_>
      0. 0. 0. 4.31515480e-04 2.53512841e-02 2.26198253e-03
      5.74014522e-03 1.24874909e-03 0. 0. 0. 0. 1.87104363e-02
      1.70333788e-01 6.78594690e-03 1.05194179e-02 2.03570700e-03 0.
      1.82627235e-02 0. 0. 8.19880329e-03 1.78210944e-01 4.29777056e-02
      1.18293121e-01 1.57462478e-01 7.58265629e-02 2.50557542e-01
      1.23757673e-02 1.28252972e-02 4.18263108e-01 4.26948637e-01
      2.13854983e-01 2.37389013e-01 4.26948637e-01 4.26948637e-01 0. 0.
      0. 1.15368385e-02 8.17596614e-02 1.11113617e-03 1.19589188e-03
      2.03696050e-04 0. 0. 0. 0. 2.54864409e-03 4.11515906e-02 0. 0. 0.
      0. 2.21330345e-01 4.06249128e-02 2.20179688e-02 3.22973728e-01
      4.04522181e-01 1.42136782e-01 6.16042651e-02 1.03784785e-01
      4.04522181e-01 1.96860388e-01 8.54884088e-02 5.18298149e-02
      3.63736570e-01 4.04522181e-01 1.43773511e-01 5.85892461e-02
      1.30706310e-01 2.89964944e-01 0. 0. 0. 0. 3.77556421e-02 0. 0. 0.
      0. 0. 0. 0. 0. 1.76291517e-03 0. 0. 0. 0. 2.10606009e-01
      1.72168270e-01 3.45688909e-01 4.57670420e-01 4.57670420e-01
      1.64112642e-01 8.21970105e-02 2.23875895e-01 3.56903613e-01
      1.65008437e-02 7.47197717e-02 2.03185022e-01 3.38550627e-01
      8.78307819e-02 7.96764065e-03 9.61321685e-03 1.77712888e-02
      2.11192798e-02 1.76517945e-02 0. 0. 3.45327845e-03 5.71522936e-02
      1.81019101e-02 5.35975397e-02 9.46463868e-02 6.14878982e-02
      2.80342281e-01 9.75366682e-02 4.34078500e-02 2.32100785e-01
      3.08088750e-01 2.89037168e-01 3.08088750e-01 3.08088750e-01
      3.08088750e-01 3.36845359e-03 0. 0. 0. 0. 0. 3.14535410e-03
      5.36947185e-03 8.55526049e-03 1.32968664e-01 1.03649408e-01
      6.64557815e-02 1.10455602e-01 1.03566587e-01 1.72246993e-01
      3.08088750e-01 3.08088750e-01 3.08088750e-01 1.78147003e-01
      1.02638483e-01 3.22000645e-02 1.20509133e-01 2.44210720e-01
      1.75876632e-01 1.00784600e-01 8.33967403e-02 2.44210720e-01
      2.44210720e-01 1.89675227e-01 4.81973663e-02 1.60393596e-01
      2.44210720e-01 2.44210720e-01 7.23349825e-02 1.03441551e-01
      2.31694028e-01 1.98426977e-01 1.16743058e-01 5.15736528e-02
      9.74041000e-02 1.30129993e-01 1.53580651e-01 1.14142857e-01
      1.59302011e-01 2.42188737e-01 2.44210720e-01 2.44210720e-01
      4.08798680e-02 6.83332011e-02 1.38709083e-01 2.44210720e-01
      6.87429160e-02 7.02744424e-02 2.07258701e-01 2.85926312e-01
      2.85926312e-01 2.57269561e-01 2.85926312e-01 2.85926312e-01
      2.85926312e-01 9.52593535e-02 1.66198581e-01 2.77882189e-01
      4.59837280e-02 1.37072146e-01 1.55045554e-01 1.44522041e-01
      2.34004706e-02 1.53888278e-02 1.15876701e-02 1.69002078e-02
      1.90884043e-02 2.85926312e-01 2.85926312e-01 1.21808007e-01
      8.07353556e-02 6.12555146e-02 2.85926312e-01 8.83774459e-02
      7.35590234e-02 1.66135043e-01 6.01231046e-02 1.39148936e-01
      7.34445155e-02 2.87050009e-02 1.42127171e-03 1.42414132e-02
      8.30467138e-03 9.10011213e-03 1.14011513e-02 0. 0. 0. 0. 0. 0.
      4.43034898e-03 1.47678284e-03 0. 3.44671071e-01 8.83085653e-02
      1.21751875e-01 2.65492141e-01 1.22853994e-01 3.02477200e-02
      5.05634010e-01 5.05634010e-01 5.05634010e-01 0. 0. 0. 0. 0. 0. 0.
      0. 0. 2.91269645e-03 0. 0. 0. 0. 0. 0. 0. 2.91269645e-03
      3.46549004e-01 1.11959599e-01 7.64252394e-02 1.63520589e-01
      1.67463183e-01 1.09151602e-01 1.12664871e-01 3.46549004e-01
      3.46549004e-01 3.46549004e-01 3.46549004e-01 4.74096201e-02
      8.73320401e-02 1.88636884e-01 3.46549004e-01 6.37600571e-02
      9.24022049e-02 3.46549004e-01 3.13713914e-03 0. 0. 0. 0. 0. 0. 0.
      3.13713914e-03 2.84674764e-03 0. 0. 0. 0. 0. 0. 0. 2.84674764e-03
      5.40858924e-01 5.40858924e-01 2.66948137e-02 2.20156647e-03
      9.70292166e-02 5.40858924e-01 1.01201147e-01 5.97885158e-03
      2.44901523e-01 1.10793896e-01 1.55796394e-01 4.12243186e-03
      3.88511660e-04 0. 7.16770906e-03 1.05317726e-04 0. 3.01837921e-03
      9.58880351e-04 0. 0. 0. 0. 0. 0. 0. 9.58880351e-04 0. 0. 0. 0. 0.
      0. 0. 0. 0.</_>
    <_>
      3.04393121e-04 1.60428826e-04 0. 0. 7.02128038e-02 1.02212029e-02
      1.65544413e-02 1.06770331e-02 1.99144939e-04 1.34087782e-02
      7.36608682e-03 0. 0. 3.72435033e-01 6.06843345e-02 2.10850406e-02
      1.42603489e-02 4.89475625e-03 4.84923646e-02 3.06712906e-03 0. 0.
      2.83329666e-01 5.81963770e-02 1.40895724e-01 1.81515694e-01
      1.64535999e-01 3.89509529e-01 1.46723226e-01 0. 0. 3.89509529e-01
      3.13389122e-01 1.94848746e-01 2.61983246e-01 3.89509529e-01
      1.55415488e-02 2.75619305e-03 0. 0. 2.16851652e-01 4.20150571e-02
      3.29604885e-03 9.88006010e-04 8.98066536e-03 2.53178533e-02
      2.97888502e-04 1.00889185e-03 2.95109134e-02 3.22782785e-01
      4.13304381e-02 3.17615294e-03 3.97347473e-03 1.79601368e-02
      3.27332824e-01 7.46055767e-02 3.20226740e-04 0. 3.27332824e-01
      2.86937803e-01 5.53141646e-02 2.21439842e-02 2.66372919e-01
      3.27332824e-01 1.30772248e-01 1.14736678e-02 1.02758594e-01
      3.27332824e-01 3.27332824e-01 1.40109211e-01 1.01493478e-01
      2.89789259e-01 1.56277455e-02 8.15942243e-04 2.47576423e-02
      8.99356231e-02 3.17768365e-01 1.52551122e-02 4.32561664e-03
      5.42308390e-03 1.24850413e-02 8.02321942e-04 1.01817108e-03
      2.77080964e-02 3.95595320e-02 7.51634240e-02 0. 4.79305396e-04
      2.68007134e-04 8.02321942e-04 3.17768365e-01 2.06074998e-01
      3.17768365e-01 3.17768365e-01 3.17768365e-01 1.79876491e-01
      1.76911622e-01 1.92428648e-01 3.02924424e-01 9.10418481e-02
      9.87703949e-02 3.17768365e-01 2.29078829e-01 2.31856003e-01 0.
      3.81954424e-02 5.31471446e-02 1.00610875e-01 7.60657713e-02
      2.93230568e-03 0. 0. 1.53879508e-01 3.73059362e-02 1.11104414e-01
      1.72849655e-01 2.42008030e-01 3.58658522e-01 1.49726793e-01
      1.24427667e-02 5.19419322e-03 3.58658522e-01 2.91760087e-01
      3.11049223e-01 3.26758862e-01 3.58658522e-01 7.40380771e-03
      1.42027943e-06 0. 0. 0. 0. 0. 6.00627274e-04 1.62379276e-02
      5.81942499e-02 1.76940784e-02 2.00932585e-02 6.34845626e-03
      9.24170762e-03 8.75577927e-02 2.49833629e-01 2.92575717e-01
      8.58840048e-02 2.41360173e-01 1.18834861e-01 3.64701897e-02
      2.87746284e-02 1.81797445e-01 2.41360173e-01 1.30788594e-01
      6.11545034e-02 1.60336852e-01 2.41360173e-01 2.41360173e-01
      4.53755483e-02 6.75856620e-02 2.36748651e-01 2.41360173e-01
      1.78309828e-01 9.60934013e-02 1.62727371e-01 4.83065806e-02
      9.78360176e-02 7.42157176e-02 1.49190903e-01 3.33708525e-02
      1.09109923e-01 1.51026800e-01 2.41360173e-01 1.14759110e-01
      2.13710085e-01 1.85612381e-01 9.34646577e-02 2.41360173e-01
      1.65912345e-01 1.94473222e-01 1.24399051e-01 2.23500520e-01
